svm_type c_svc
kernel_type rbf
gamma 0.3125
nr_class 5
total_sv 450
rho -0.00281784 -0.000329591 -0.000138747 -0.000654617 0.00247816 0.00266855 0.00213276 -7.78452e-05 -0.000347059 0.00507228
label 0 1 2 3 4
nr_sv 90 90 90 90 90
SV
0.9976422400829372 0.9991502351447906 0.9999667957217458 0.9993717498883344 1:1 2:1 5:1 7:1 8:1 13:1 15:1 16:1 17:1 18:1 19:1 20:1 23:1 24:1 25:1 27:1 28:1 31:1 32:1 33:1 35:1 38:1 40:1 41:1 42:1 46:1 49:1 50:1 53:1 56:1 58:1 59:1 64:1 70:1 71:1 73:1 79:1 82:1 83:1 100:1 141:1 150:1 168:1 186:1 201:1 217:1 234:1 283:1 289:1 301:1 303:1 304:1 305:1 306:1 315:1 320:1 326:1 330:1 333:1 335:1 337:1 338:1 341:1 346:1 349:1 350:1 355:1 358:1 360:1 363:1 365:1 368:1 370:1 371:1 376:1 377:1 378:1 382:1 384:1 385:1 387:1 389:1 392:1 398:1 411:1 431:1 437:1 446:1 454:1 477:1 482:1 
0.9971127198455123 1.000000179054466 1.000000185814159 0.9990656916225586 1:1 2:1 5:1 13:1 20:1 24:1 32:1 35:1 42:1 49:1 58:1 73:1 82:1 87:1 92:1 97:1 141:1 205:1 234:1 301:1 307:1 315:1 322:1 323:1 326:1 330:1 335:1 341:1 344:1 352:1 355:1 356:1 365:1 366:1 371:1 373:1 381:1 383:1 389:1 398:1 399:1 403:1 424:1 426:1 433:1 492:1 
0.9970958394118958 0.9990082782687026 0.9992021918273963 0.9990072533227264 1:1 2:1 5:1 7:1 8:1 13:1 16:1 18:1 20:1 23:1 24:1 25:1 27:1 28:1 30:1 31:1 32:1 33:1 34:1 35:1 38:1 39:1 41:1 42:1 43:1 46:1 56:1 58:1 59:1 62:1 64:1 66:1 71:1 73:1 81:1 82:1 89:1 90:1 92:1 97:1 132:1 141:1 144:1 146:1 150:1 155:1 205:1 234:1 235:1 257:1 301:1 303:1 304:1 305:1 306:1 307:1 311:1 312:1 315:1 316:1 317:1 322:1 323:1 326:1 330:1 333:1 335:1 336:1 337:1 338:1 341:1 342:1 344:1 345:1 347:1 348:1 352:1 355:1 356:1 358:1 360:1 362:1 363:1 365:1 368:1 369:1 371:1 372:1 373:1 376:1 377:1 378:1 382:1 384:1 385:1 387:1 388:1 389:1 391:1 392:1 397:1 411:1 426:1 437:1 446:1 453:1 454:1 464:1 480:1 491:1 492:1 
0.9969110929403832 0.9991574254720543 0.9999999988528538 0.9993879689190455 1:1 2:1 5:1 7:1 8:1 13:1 15:1 16:1 18:1 20:1 23:1 24:1 25:1 27:1 28:1 32:1 39:1 41:1 42:1 46:1 49:1 50:1 56:1 64:1 71:1 81:1 82:1 141:1 150:1 169:1 185:1 188:1 205:1 217:1 234:1 279:1 283:1 289:1 301:1 303:1 304:1 306:1 315:1 326:1 330:1 335:1 337:1 341:1 344:1 345:1 354:1 360:1 370:1 376:1 378:1 382:1 385:1 387:1 392:1 414:1 435:1 440:1 446:1 452:1 454:1 471:1 
0.9972828936862523 0.9992227087452206 0.9999999816621848 0.9994187026434662 1:1 7:1 19:1 24:1 32:1 40:1 42:1 64:1 73:1 92:1 97:1 121:1 122:1 125:1 126:1 131:1 144:1 146:1 149:1 152:1 155:1 159:1 160:1 166:1 168:1 170:1 189:1 190:1 191:1 193:1 235:1 269:1 282:1 294:1 301:1 306:1 309:1 310:1 312:1 317:1 323:1 327:1 336:1 338:1 345:1 347:1 354:1 368:1 372:1 382:1 383:1 384:1 391:1 392:1 411:1 424:1 426:1 437:1 446:1 448:1 452:1 453:1 454:1 464:1 478:1 491:1 492:1 493:1 495:1 
0.9975296861830036 0.9991025829231741 0.9999928876715922 0.9993853702231714 1:1 2:1 5:1 7:1 8:1 13:1 15:1 16:1 17:1 18:1 20:1 23:1 24:1 25:1 27:1 28:1 30:1 31:1 32:1 33:1 35:1 38:1 40:1 41:1 42:1 43:1 46:1 49:1 50:1 56:1 58:1 59:1 66:1 71:1 73:1 82:1 83:1 97:1 100:1 141:1 150:1 159:1 168:1 186:1 191:1 201:1 205:1 217:1 235:1 283:1 294:1 301:1 303:1 304:1 305:1 306:1 312:1 315:1 316:1 326:1 330:1 335:1 337:1 338:1 341:1 345:1 348:1 355:1 356:1 360:1 363:1 365:1 371:1 373:1 376:1 378:1 382:1 384:1 385:1 387:1 388:1 389:1 391:1 392:1 398:1 411:1 417:1 424:1 426:1 437:1 446:1 452:1 454:1 455:1 464:1 466:1 471:1 492:1 493:1 
0.9971362903714331 1.00008444450591 1.000042146853151 0.9994279125778917 75:1 144:1 166:1 191:1 307:1 337:1 354:1 363:1 380:1 401:1 404:1 405:1 407:1 410:1 417:1 418:1 424:1 425:1 426:1 433:1 437:1 446:1 453:1 455:1 458:1 461:1 464:1 472:1 491:1 494:1 
1.000908587970577 1.023541542019822 1.024083769051965 0.9993449292708247 1:1 16:1 17:1 19:1 33:1 138:1 182:1 200:1 301:1 306:1 390:1 476:1 
0.9968561487069558 0.9999997667659167 0.9999994423881072 0.9994167897492465 1:1 2:1 5:1 7:1 13:1 15:1 16:1 17:1 18:1 19:1 20:1 28:1 30:1 32:1 35:1 38:1 39:1 40:1 42:1 43:1 49:1 53:1 59:1 64:1 66:1 73:1 81:1 82:1 83:1 87:1 89:1 92:1 141:1 144:1 150:1 155:1 166:1 212:1 217:1 234:1 264:1 271:1 294:1 301:1 305:1 306:1 312:1 317:1 326:1 330:1 340:1 341:1 345:1 347:1 354:1 355:1 356:1 360:1 362:1 365:1 372:1 378:1 381:1 382:1 388:1 391:1 392:1 403:1 406:1 411:1 417:1 422:1 424:1 426:1 437:1 446:1 448:1 452:1 453:1 454:1 455:1 464:1 466:1 471:1 482:1 491:1 492:1 
0.9971652084987305 0.9992124207765862 0.9999546017094798 0.9993804915692033 1:1 2:1 5:1 7:1 8:1 13:1 15:1 16:1 17:1 18:1 19:1 20:1 23:1 27:1 28:1 30:1 31:1 32:1 33:1 35:1 38:1 39:1 40:1 42:1 43:1 46:1 49:1 50:1 56:1 58:1 59:1 64:1 66:1 73:1 75:1 79:1 87:1 89:1 97:1 100:1 119:1 141:1 150:1 217:1 301:1 303:1 305:1 306:1 307:1 312:1 316:1 317:1 319:1 330:1 335:1 337:1 338:1 341:1 344:1 356:1 360:1 367:1 371:1 376:1 382:1 388:1 389:1 390:1 392:1 411:1 424:1 426:1 437:1 440:1 454:1 456:1 471:1 480:1 492:1 
0.9971503425969391 0.9993575176896999 0.9999421615241978 0.9993946940436486 1:1 2:1 5:1 7:1 8:1 13:1 15:1 16:1 17:1 18:1 19:1 20:1 23:1 24:1 25:1 27:1 28:1 30:1 31:1 32:1 33:1 35:1 38:1 39:1 40:1 41:1 42:1 43:1 46:1 49:1 50:1 53:1 56:1 58:1 59:1 62:1 64:1 66:1 70:1 71:1 73:1 82:1 83:1 87:1 89:1 90:1 97:1 100:1 141:1 165:1 168:1 182:1 186:1 205:1 217:1 235:1 249:1 283:1 289:1 301:1 303:1 304:1 305:1 306:1 307:1 308:1 312:1 315:1 317:1 319:1 326:1 330:1 335:1 337:1 338:1 341:1 344:1 347:1 348:1 349:1 350:1 356:1 360:1 363:1 365:1 368:1 370:1 371:1 373:1 376:1 378:1 382:1 384:1 387:1 388:1 389:1 392:1 398:1 411:1 437:1 446:1 452:1 454:1 477:1 482:1 493:1 
0.9976263336802265 0.9993975519023413 0.9999124559934662 0.9994110957453092 1:1 2:1 38:1 39:1 81:1 83:1 89:1 121:1 124:1 125:1 126:1 131:1 135:1 138:1 142:1 144:1 146:1 147:1 149:1 151:1 152:1 155:1 156:1 157:1 158:1 159:1 160:1 162:1 166:1 168:1 169:1 170:1 174:1 175:1 176:1 178:1 181:1 190:1 193:1 198:1 205:1 218:1 235:1 237:1 244:1 249:1 250:1 252:1 282:1 287:1 289:1 292:1 294:1 306:1 312:1 316:1 317:1 337:1 345:1 347:1 354:1 363:1 371:1 372:1 373:1 376:1 378:1 384:1 388:1 391:1 392:1 411:1 417:1 424:1 426:1 435:1 437:1 440:1 443:1 446:1 448:1 452:1 453:1 454:1 455:1 459:1 464:1 478:1 490:1 491:1 493:1 495:1 
0.9973408220836281 1.000076817770625 1.000079132974355 0.9997309240037531 2:1 7:1 16:1 39:1 71:1 97:1 108:1 138:1 200:1 217:1 270:1 275:1 301:1 304:1 308:1 317:1 335:1 360:1 391:1 406:1 446:1 453:1 455:1 477:1 478:1 491:1 495:1 
0.9967975726956668 0.999110191699366 0.9999998420704427 0.9994282743009558 1:1 2:1 5:1 7:1 8:1 13:1 15:1 17:1 18:1 19:1 20:1 23:1 24:1 25:1 27:1 28:1 30:1 31:1 32:1 33:1 34:1 35:1 38:1 41:1 42:1 46:1 53:1 56:1 58:1 59:1 62:1 66:1 70:1 71:1 73:1 79:1 81:1 82:1 97:1 100:1 121:1 126:1 131:1 132:1 141:1 143:1 144:1 146:1 150:1 151:1 156:1 160:1 162:1 166:1 168:1 169:1 182:1 189:1 205:1 270:1 294:1 301:1 303:1 304:1 306:1 307:1 311:1 312:1 316:1 317:1 322:1 330:1 335:1 337:1 338:1 341:1 342:1 344:1 345:1 347:1 352:1 358:1 360:1 362:1 363:1 365:1 368:1 371:1 372:1 373:1 376:1 378:1 382:1 384:1 387:1 392:1 398:1 399:1 411:1 414:1 417:1 424:1 426:1 437:1 446:1 448:1 452:1 453:1 454:1 455:1 464:1 477:1 478:1 480:1 482:1 491:1 493:1 495:1 
1.007078557296915 0.9991931888716744 0.9997202374478358 0.9993694104248828 1:1 2:1 5:1 59:1 81:1 100:1 121:1 124:1 125:1 126:1 131:1 132:1 138:1 141:1 144:1 146:1 147:1 151:1 152:1 155:1 156:1 157:1 158:1 159:1 160:1 162:1 168:1 169:1 170:1 174:1 175:1 176:1 178:1 181:1 191:1 193:1 196:1 198:1 205:1 235:1 237:1 249:1 282:1 287:1 291:1 292:1 294:1 301:1 316:1 317:1 337:1 345:1 347:1 363:1 372:1 376:1 378:1 384:1 391:1 411:1 417:1 437:1 446:1 452:1 453:1 454:1 455:1 459:1 464:1 478:1 490:1 491:1 493:1 495:1 
0.9968056418592476 0.9991434495861807 0.9999766104657409 0.9990517857576275 1:1 2:1 5:1 7:1 8:1 13:1 16:1 17:1 18:1 19:1 20:1 23:1 24:1 25:1 27:1 28:1 30:1 31:1 32:1 33:1 34:1 35:1 38:1 40:1 41:1 42:1 43:1 46:1 49:1 50:1 53:1 56:1 58:1 59:1 62:1 64:1 66:1 79:1 81:1 82:1 90:1 92:1 97:1 100:1 124:1 126:1 141:1 143:1 150:1 152:1 156:1 162:1 205:1 217:1 292:1 294:1 301:1 303:1 304:1 305:1 306:1 311:1 312:1 316:1 317:1 322:1 325:1 330:1 335:1 336:1 337:1 338:1 341:1 344:1 345:1 347:1 358:1 360:1 362:1 363:1 365:1 368:1 371:1 372:1 376:1 377:1 378:1 380:1 382:1 384:1 387:1 388:1 389:1 392:1 411:1 417:1 424:1 426:1 437:1 446:1 452:1 453:1 454:1 459:1 464:1 471:1 491:1 492:1 495:1 497:1 
0.9973694345383523 0.9993596638033115 0.9999808440752792 0.9993829404319111 1:1 2:1 5:1 7:1 8:1 13:1 15:1 16:1 17:1 19:1 20:1 23:1 25:1 28:1 32:1 33:1 35:1 38:1 39:1 40:1 41:1 42:1 43:1 46:1 49:1 50:1 53:1 58:1 59:1 62:1 64:1 66:1 70:1 71:1 73:1 75:1 79:1 81:1 82:1 83:1 90:1 97:1 100:1 141:1 142:1 144:1 150:1 156:1 158:1 169:1 176:1 182:1 189:1 205:1 217:1 234:1 235:1 270:1 283:1 289:1 294:1 301:1 303:1 304:1 305:1 306:1 307:1 311:1 312:1 316:1 317:1 325:1 330:1 337:1 338:1 341:1 345:1 347:1 360:1 362:1 363:1 365:1 368:1 371:1 373:1 376:1 378:1 382:1 384:1 387:1 388:1 389:1 391:1 392:1 403:1 411:1 417:1 422:1 424:1 426:1 437:1 446:1 448:1 452:1 453:1 454:1 464:1 478:1 480:1 482:1 491:1 493:1 495:1 
0.9970025331268226 0.9999965155435999 0.9999919820432204 0.9993856273963444 1:1 2:1 5:1 7:1 8:1 13:1 15:1 16:1 17:1 18:1 19:1 20:1 23:1 24:1 28:1 30:1 32:1 35:1 38:1 39:1 40:1 42:1 49:1 53:1 64:1 70:1 71:1 73:1 75:1 81:1 83:1 89:1 90:1 126:1 131:1 135:1 141:1 144:1 146:1 150:1 158:1 168:1 170:1 176:1 186:1 191:1 198:1 217:1 235:1 287:1 292:1 294:1 301:1 305:1 306:1 312:1 317:1 330:1 337:1 341:1 345:1 347:1 363:1 372:1 378:1 384:1 391:1 392:1 406:1 411:1 417:1 424:1 426:1 433:1 437:1 446:1 452:1 453:1 454:1 459:1 464:1 477:1 478:1 491:1 492:1 493:1 495:1 
0.9968560706636477 0.9993790852880388 0.999999982725832 0.9990369867224761 1:1 2:1 5:1 7:1 15:1 16:1 17:1 19:1 28:1 30:1 32:1 35:1 39:1 40:1 49:1 64:1 71:1 73:1 92:1 97:1 121:1 126:1 131:1 135:1 141:1 149:1 150:1 151:1 152:1 155:1 156:1 157:1 158:1 160:1 162:1 166:1 168:1 170:1 174:1 189:1 199:1 200:1 205:1 235:1 269:1 287:1 294:1 301:1 303:1 304:1 305:1 306:1 307:1 309:1 312:1 316:1 319:1 337:1 345:1 347:1 348:1 360:1 372:1 376:1 382:1 383:1 384:1 388:1 391:1 392:1 406:1 417:1 424:1 426:1 435:1 437:1 446:1 452:1 453:1 454:1 455:1 459:1 464:1 466:1 478:1 480:1 491:1 492:1 
0.9973805182162917 0.9994537810998955 0.9999325637396168 0.9994076498315653 1:1 2:1 5:1 7:1 8:1 13:1 15:1 16:1 17:1 19:1 23:1 24:1 28:1 30:1 32:1 35:1 38:1 39:1 40:1 42:1 49:1 53:1 62:1 64:1 70:1 71:1 73:1 81:1 83:1 89:1 97:1 121:1 122:1 126:1 131:1 141:1 146:1 147:1 150:1 157:1 160:1 162:1 165:1 168:1 174:1 176:1 178:1 181:1 186:1 217:1 235:1 264:1 282:1 283:1 292:1 294:1 301:1 303:1 305:1 306:1 312:1 316:1 317:1 330:1 337:1 345:1 346:1 347:1 363:1 368:1 370:1 371:1 373:1 376:1 378:1 382:1 384:1 391:1 392:1 406:1 411:1 417:1 437:1 446:1 452:1 453:1 454:1 455:1 459:1 464:1 477:1 478:1 490:1 491:1 493:1 495:1 
0.9973503566695286 0.9999931442287782 0.9993010324095303 0.9990851923415003 1:1 2:1 5:1 7:1 8:1 13:1 15:1 16:1 17:1 19:1 20:1 28:1 30:1 32:1 35:1 38:1 39:1 40:1 42:1 49:1 53:1 59:1 64:1 70:1 71:1 73:1 79:1 81:1 83:1 90:1 121:1 141:1 150:1 162:1 168:1 176:1 181:1 182:1 186:1 205:1 217:1 235:1 283:1 294:1 299:1 301:1 303:1 304:1 305:1 306:1 312:1 316:1 317:1 325:1 330:1 333:1 335:1 345:1 346:1 368:1 373:1 376:1 378:1 382:1 384:1 387:1 389:1 391:1 392:1 411:1 414:1 417:1 437:1 446:1 452:1 453:1 454:1 464:1 471:1 477:1 478:1 490:1 495:1 
0.9965583530158602 0.99916747014705 0.9984580502785513 0.9985229963762996 1:1 2:1 5:1 7:1 8:1 13:1 15:1 16:1 17:1 18:1 19:1 20:1 23:1 24:1 25:1 27:1 28:1 30:1 31:1 32:1 33:1 34:1 35:1 38:1 40:1 41:1 42:1 43:1 46:1 49:1 50:1 53:1 56:1 58:1 59:1 62:1 64:1 66:1 71:1 73:1 75:1 79:1 82:1 90:1 92:1 97:1 100:1 141:1 150:1 186:1 217:1 301:1 302:1 303:1 304:1 305:1 306:1 307:1 311:1 312:1 322:1 325:1 330:1 335:1 336:1 337:1 338:1 340:1 341:1 348:1 352:1 356:1 358:1 360:1 362:1 365:1 368:1 371:1 376:1 382:1 387:1 388:1 389:1 392:1 400:1 411:1 424:1 435:1 437:1 446:1 454:1 466:1 471:1 482:1 492:1 
0.9969468469719464 0.99939011745025 0.9999974466042411 0.9990419360937949 1:1 2:1 5:1 7:1 8:1 13:1 15:1 16:1 17:1 18:1 19:1 20:1 24:1 27:1 28:1 30:1 31:1 32:1 33:1 35:1 39:1 40:1 41:1 42:1 46:1 49:1 50:1 53:1 59:1 62:1 64:1 66:1 70:1 71:1 75:1 79:1 81:1 83:1 89:1 90:1 97:1 100:1 132:1 141:1 150:1 151:1 166:1 173:1 175:1 189:1 191:1 193:1 217:1 287:1 294:1 301:1 303:1 304:1 305:1 306:1 317:1 319:1 330:1 335:1 337:1 338:1 341:1 345:1 347:1 354:1 360:1 362:1 368:1 380:1 382:1 384:1 387:1 388:1 391:1 392:1 411:1 422:1 424:1 426:1 437:1 446:1 452:1 453:1 454:1 455:1 464:1 466:1 480:1 482:1 491:1 494:1 
0.9949207987993103 0.9977212318644028 0.9970102334652524 0.9972397344939326 1:1 2:1 5:1 7:1 8:1 13:1 15:1 16:1 17:1 18:1 19:1 20:1 23:1 24:1 25:1 27:1 28:1 30:1 31:1 32:1 33:1 34:1 35:1 38:1 40:1 41:1 42:1 46:1 49:1 50:1 53:1 56:1 58:1 59:1 62:1 64:1 66:1 70:1 71:1 73:1 75:1 79:1 82:1 83:1 90:1 92:1 97:1 100:1 141:1 150:1 173:1 186:1 217:1 234:1 270:1 283:1 289:1 301:1 303:1 304:1 305:1 306:1 311:1 312:1 315:1 316:1 322:1 330:1 335:1 336:1 337:1 338:1 341:1 344:1 352:1 358:1 360:1 362:1 363:1 365:1 368:1 371:1 372:1 376:1 377:1 378:1 380:1 382:1 384:1 387:1 388:1 389:1 390:1 392:1 398:1 411:1 426:1 437:1 446:1 454:1 464:1 482:1 
0.9976543290074872 0.9994740857641392 0.999999935242051 0.999390229782148 1:1 2:1 5:1 7:1 8:1 13:1 15:1 16:1 17:1 19:1 20:1 23:1 31:1 32:1 33:1 35:1 38:1 39:1 40:1 42:1 43:1 49:1 64:1 70:1 73:1 79:1 82:1 87:1 89:1 92:1 97:1 100:1 125:1 126:1 141:1 150:1 155:1 166:1 191:1 217:1 235:1 287:1 289:1 294:1 301:1 303:1 305:1 306:1 307:1 311:1 312:1 316:1 317:1 322:1 326:1 330:1 335:1 337:1 338:1 341:1 344:1 345:1 352:1 354:1 356:1 371:1 372:1 376:1 377:1 382:1 388:1 391:1 392:1 411:1 422:1 424:1 426:1 437:1 446:1 453:1 454:1 455:1 464:1 471:1 491:1 493:1 
0.9862700324894479 0.9882865773929578 0.9883875794079056 0.9882141741383504 1:1 2:1 5:1 7:1 8:1 13:1 16:1 17:1 18:1 20:1 23:1 24:1 25:1 27:1 28:1 30:1 31:1 32:1 33:1 34:1 35:1 38:1 41:1 42:1 43:1 46:1 49:1 50:1 56:1 58:1 59:1 62:1 64:1 66:1 71:1 73:1 75:1 79:1 82:1 87:1 90:1 92:1 97:1 100:1 141:1 150:1 234:1 257:1 301:1 303:1 304:1 305:1 306:1 311:1 312:1 315:1 316:1 322:1 325:1 326:1 330:1 335:1 336:1 337:1 338:1 341:1 342:1 344:1 352:1 358:1 360:1 362:1 365:1 368:1 371:1 372:1 376:1 377:1 378:1 382:1 387:1 388:1 389:1 392:1 398:1 411:1 426:1 437:1 454:1 
0.9970230513902768 0.9990267516505293 0.9999904978137503 0.9993895066442061 1:1 2:1 5:1 7:1 8:1 13:1 16:1 17:1 18:1 19:1 20:1 23:1 24:1 25:1 27:1 28:1 30:1 32:1 35:1 38:1 39:1 40:1 42:1 49:1 53:1 64:1 70:1 71:1 73:1 75:1 82:1 83:1 92:1 97:1 141:1 150:1 217:1 294:1 301:1 303:1 305:1 306:1 316:1 317:1 319:1 322:1 325:1 326:1 330:1 336:1 337:1 338:1 341:1 342:1 345:1 347:1 352:1 354:1 360:1 362:1 368:1 371:1 373:1 378:1 382:1 384:1 387:1 389:1 392:1 411:1 426:1 437:1 446:1 452:1 453:1 454:1 464:1 466:1 477:1 478:1 480:1 
0.997098238083343 0.9999786315201905 0.9992787941569338 0.9993722189386018 1:1 2:1 5:1 7:1 13:1 15:1 16:1 17:1 19:1 20:1 23:1 24:1 28:1 32:1 35:1 39:1 40:1 42:1 46:1 49:1 53:1 58:1 62:1 64:1 70:1 71:1 73:1 81:1 82:1 83:1 97:1 121:1 126:1 132:1 135:1 141:1 143:1 144:1 146:1 147:1 150:1 151:1 160:1 162:1 166:1 168:1 176:1 178:1 186:1 200:1 205:1 217:1 235:1 283:1 292:1 294:1 301:1 303:1 304:1 305:1 306:1 312:1 316:1 317:1 330:1 337:1 345:1 347:1 360:1 363:1 368:1 371:1 372:1 373:1 376:1 378:1 382:1 384:1 388:1 391:1 392:1 411:1 414:1 417:1 426:1 437:1 446:1 452:1 453:1 454:1 459:1 464:1 477:1 478:1 482:1 490:1 491:1 493:1 495:1 
0.9975749567006731 0.9994362273579721 0.9999665535043702 0.9993856624874452 1:1 2:1 5:1 7:1 8:1 13:1 15:1 16:1 17:1 18:1 19:1 20:1 23:1 28:1 30:1 32:1 35:1 38:1 39:1 40:1 42:1 49:1 50:1 53:1 64:1 70:1 71:1 73:1 81:1 82:1 83:1 90:1 122:1 141:1 150:1 182:1 186:1 205:1 217:1 235:1 262:1 264:1 283:1 301:1 303:1 305:1 306:1 312:1 316:1 330:1 338:1 341:1 345:1 347:1 356:1 371:1 373:1 376:1 378:1 382:1 384:1 389:1 391:1 392:1 406:1 411:1 412:1 424:1 435:1 437:1 443:1 446:1 452:1 454:1 464:1 477:1 492:1 493:1 
0.9971441507215336 0.9988157425027302 0.9996875531945314 0.9987369967865587 1:1 2:1 5:1 7:1 8:1 13:1 15:1 16:1 17:1 18:1 19:1 20:1 23:1 24:1 25:1 27:1 28:1 30:1 31:1 32:1 33:1 35:1 38:1 39:1 40:1 41:1 42:1 43:1 46:1 49:1 50:1 53:1 56:1 58:1 59:1 62:1 64:1 66:1 70:1 71:1 73:1 75:1 79:1 81:1 82:1 83:1 89:1 90:1 97:1 100:1 141:1 150:1 182:1 186:1 205:1 217:1 270:1 301:1 303:1 304:1 305:1 306:1 307:1 308:1 311:1 312:1 316:1 317:1 322:1 330:1 335:1 336:1 337:1 338:1 341:1 347:1 352:1 356:1 360:1 362:1 365:1 368:1 371:1 373:1 376:1 378:1 380:1 382:1 384:1 387:1 388:1 389:1 392:1 398:1 400:1 411:1 426:1 437:1 446:1 453:1 454:1 464:1 480:1 482:1 492:1 493:1 
0.9971098904822119 0.9993776333467677 0.9999990903019856 0.9993886347923464 1:1 2:1 5:1 8:1 13:1 17:1 19:1 20:1 23:1 25:1 27:1 30:1 31:1 32:1 33:1 38:1 40:1 41:1 42:1 43:1 46:1 50:1 53:1 56:1 58:1 59:1 62:1 66:1 79:1 82:1 90:1 92:1 97:1 141:1 144:1 150:1 166:1 182:1 189:1 200:1 205:1 217:1 246:1 264:1 270:1 294:1 301:1 303:1 304:1 306:1 307:1 311:1 312:1 316:1 317:1 322:1 324:1 330:1 335:1 336:1 337:1 338:1 341:1 344:1 345:1 347:1 352:1 358:1 360:1 362:1 363:1 365:1 372:1 378:1 380:1 382:1 384:1 388:1 391:1 392:1 411:1 414:1 422:1 424:1 426:1 435:1 437:1 446:1 453:1 454:1 464:1 478:1 480:1 482:1 492:1 
0.9973534092185662 0.9992988943004071 0.9999999737881993 0.9990658925697939 1:1 2:1 7:1 8:1 13:1 15:1 16:1 17:1 18:1 19:1 24:1 25:1 28:1 30:1 31:1 32:1 38:1 39:1 40:1 42:1 49:1 53:1 58:1 59:1 64:1 70:1 71:1 81:1 83:1 92:1 97:1 121:1 126:1 131:1 132:1 141:1 144:1 146:1 155:1 156:1 158:1 159:1 160:1 166:1 168:1 169:1 170:1 174:1 175:1 176:1 181:1 191:1 198:1 199:1 205:1 217:1 235:1 249:1 275:1 282:1 287:1 292:1 294:1 301:1 303:1 304:1 305:1 306:1 307:1 312:1 315:1 316:1 317:1 322:1 323:1 325:1 330:1 335:1 337:1 338:1 342:1 345:1 347:1 354:1 360:1 363:1 368:1 371:1 372:1 373:1 378:1 382:1 384:1 388:1 389:1 391:1 392:1 398:1 411:1 417:1 424:1 426:1 433:1 437:1 446:1 448:1 452:1 453:1 454:1 455:1 464:1 478:1 480:1 482:1 490:1 491:1 492:1 493:1 494:1 495:1 
0.9939037725298995 0.9962196689790788 0.9963833160763479 0.9961697686299307 1:1 2:1 5:1 7:1 8:1 13:1 15:1 16:1 17:1 18:1 19:1 20:1 23:1 24:1 25:1 27:1 28:1 30:1 31:1 32:1 33:1 35:1 38:1 40:1 41:1 42:1 43:1 46:1 49:1 50:1 53:1 56:1 58:1 59:1 62:1 64:1 66:1 70:1 71:1 73:1 75:1 79:1 82:1 90:1 92:1 97:1 100:1 141:1 150:1 155:1 217:1 301:1 303:1 304:1 305:1 306:1 307:1 311:1 312:1 315:1 316:1 317:1 319:1 320:1 322:1 330:1 335:1 336:1 337:1 338:1 341:1 344:1 352:1 355:1 356:1 358:1 360:1 362:1 365:1 368:1 369:1 371:1 376:1 377:1 378:1 382:1 387:1 388:1 389:1 390:1 392:1 398:1 411:1 426:1 437:1 446:1 454:1 482:1 492:1 
0.9973717368600228 0.9999977785002111 0.9994964768652909 0.99938810472129 1:1 2:1 5:1 7:1 8:1 13:1 15:1 16:1 17:1 18:1 19:1 20:1 23:1 24:1 25:1 27:1 28:1 30:1 32:1 33:1 35:1 38:1 39:1 40:1 42:1 43:1 46:1 49:1 50:1 53:1 58:1 59:1 64:1 66:1 70:1 71:1 73:1 75:1 81:1 82:1 83:1 90:1 127:1 141:1 144:1 150:1 151:1 152:1 159:1 166:1 168:1 169:1 178:1 189:1 205:1 217:1 234:1 270:1 287:1 289:1 294:1 301:1 306:1 312:1 316:1 317:1 319:1 324:1 330:1 335:1 337:1 338:1 341:1 345:1 347:1 352:1 360:1 362:1 363:1 366:1 368:1 371:1 372:1 373:1 376:1 378:1 382:1 384:1 388:1 389:1 391:1 392:1 411:1 424:1 426:1 437:1 446:1 452:1 453:1 454:1 455:1 464:1 466:1 478:1 480:1 482:1 490:1 491:1 493:1 494:1 495:1 
0.9971116546736756 0.9999994793767133 0.9999997562785644 0.9993906894351431 2:1 5:1 13:1 18:1 20:1 24:1 27:1 31:1 38:1 39:1 40:1 70:1 79:1 82:1 83:1 97:1 144:1 151:1 158:1 170:1 172:1 186:1 198:1 217:1 264:1 270:1 294:1 341:1 345:1 347:1 360:1 384:1 391:1 392:1 403:1 406:1 411:1 417:1 422:1 424:1 433:1 437:1 446:1 452:1 453:1 454:1 455:1 464:1 491:1 494:1 495:1 497:1 
0.9941382647263606 0.9964664387736394 0.9963790420199438 0.9964690978463273 1:1 2:1 5:1 7:1 8:1 13:1 15:1 16:1 17:1 18:1 19:1 20:1 23:1 24:1 25:1 27:1 28:1 30:1 31:1 32:1 33:1 35:1 38:1 40:1 41:1 42:1 43:1 46:1 49:1 50:1 53:1 56:1 58:1 59:1 62:1 64:1 66:1 70:1 71:1 73:1 75:1 79:1 82:1 90:1 92:1 97:1 100:1 119:1 141:1 146:1 150:1 270:1 283:1 301:1 303:1 304:1 306:1 311:1 315:1 316:1 320:1 322:1 325:1 330:1 335:1 336:1 337:1 338:1 341:1 344:1 349:1 352:1 358:1 360:1 362:1 365:1 368:1 371:1 376:1 377:1 378:1 382:1 387:1 388:1 389:1 392:1 398:1 411:1 426:1 437:1 480:1 482:1 
0.9873691092453281 0.9896805065159925 0.9898220037299886 0.9896243479974367 1:1 2:1 5:1 7:1 8:1 13:1 16:1 18:1 20:1 23:1 24:1 25:1 27:1 28:1 30:1 31:1 32:1 33:1 34:1 35:1 38:1 41:1 42:1 43:1 46:1 49:1 50:1 56:1 58:1 59:1 62:1 66:1 71:1 73:1 79:1 82:1 87:1 90:1 92:1 97:1 100:1 141:1 150:1 205:1 217:1 234:1 283:1 301:1 303:1 304:1 306:1 311:1 312:1 315:1 316:1 317:1 322:1 330:1 335:1 336:1 337:1 338:1 341:1 342:1 344:1 352:1 358:1 360:1 362:1 365:1 368:1 371:1 372:1 376:1 377:1 378:1 382:1 384:1 387:1 388:1 389:1 392:1 398:1 403:1 411:1 426:1 437:1 446:1 453:1 454:1 
0.9969446218836033 0.9993019879787303 0.9998732596562085 0.9993281586564513 1:1 2:1 5:1 7:1 8:1 13:1 16:1 17:1 18:1 19:1 20:1 23:1 24:1 25:1 27:1 28:1 30:1 31:1 32:1 35:1 38:1 40:1 41:1 42:1 43:1 46:1 49:1 50:1 53:1 56:1 58:1 59:1 62:1 64:1 66:1 70:1 75:1 79:1 81:1 82:1 90:1 92:1 141:1 173:1 264:1 301:1 303:1 304:1 305:1 306:1 307:1 308:1 311:1 315:1 316:1 319:1 320:1 322:1 330:1 335:1 337:1 338:1 341:1 344:1 346:1 355:1 358:1 360:1 362:1 365:1 368:1 371:1 372:1 378:1 380:1 382:1 385:1 387:1 388:1 389:1 390:1 392:1 398:1 400:1 411:1 474:1 
0.997241091905524 0.9989258477914192 0.9988611436144803 0.9991581811856973 1:1 2:1 5:1 7:1 8:1 13:1 15:1 16:1 17:1 18:1 19:1 20:1 23:1 24:1 25:1 27:1 28:1 30:1 31:1 32:1 35:1 38:1 39:1 40:1 41:1 42:1 43:1 46:1 49:1 50:1 56:1 59:1 66:1 71:1 73:1 79:1 82:1 83:1 87:1 90:1 92:1 97:1 100:1 141:1 150:1 217:1 270:1 301:1 303:1 304:1 305:1 306:1 307:1 311:1 330:1 335:1 336:1 337:1 338:1 341:1 344:1 352:1 355:1 360:1 362:1 365:1 371:1 372:1 376:1 377:1 378:1 382:1 387:1 392:1 411:1 426:1 433:1 437:1 454:1 464:1 482:1 
0.9970834852942202 0.9990723458724879 0.999923652903192 0.9993562523075544 1:1 2:1 13:1 17:1 18:1 19:1 28:1 32:1 40:1 81:1 83:1 121:1 125:1 126:1 131:1 135:1 138:1 141:1 144:1 146:1 147:1 149:1 150:1 151:1 152:1 157:1 160:1 162:1 168:1 169:1 174:1 175:1 176:1 178:1 181:1 190:1 191:1 196:1 198:1 199:1 205:1 235:1 237:1 249:1 282:1 287:1 292:1 294:1 306:1 316:1 317:1 345:1 347:1 363:1 368:1 371:1 373:1 376:1 378:1 388:1 391:1 411:1 417:1 426:1 437:1 446:1 452:1 453:1 454:1 455:1 459:1 477:1 478:1 490:1 493:1 495:1 
0.9965614651586591 0.9993962030666591 0.9986953420138569 0.9993695790835926 1:1 2:1 5:1 7:1 8:1 13:1 16:1 17:1 18:1 19:1 20:1 23:1 24:1 25:1 27:1 28:1 30:1 31:1 32:1 33:1 35:1 38:1 39:1 40:1 41:1 42:1 43:1 46:1 49:1 50:1 56:1 58:1 59:1 62:1 66:1 73:1 81:1 82:1 87:1 90:1 92:1 97:1 100:1 131:1 141:1 150:1 166:1 234:1 301:1 303:1 304:1 305:1 306:1 307:1 308:1 311:1 312:1 315:1 316:1 317:1 322:1 330:1 335:1 336:1 337:1 338:1 341:1 342:1 344:1 345:1 348:1 352:1 355:1 358:1 360:1 362:1 363:1 365:1 369:1 371:1 372:1 376:1 377:1 378:1 380:1 382:1 384:1 387:1 388:1 389:1 392:1 400:1 411:1 426:1 437:1 446:1 454:1 464:1 
0.9969352833397387 0.9991575127311725 0.9999999977859831 0.999390283857993 1:1 2:1 13:1 25:1 31:1 33:1 53:1 58:1 59:1 62:1 124:1 126:1 132:1 141:1 144:1 146:1 147:1 150:1 156:1 158:1 159:1 162:1 168:1 170:1 182:1 189:1 193:1 199:1 202:1 203:1 205:1 212:1 216:1 218:1 226:1 227:1 229:1 235:1 243:1 246:1 249:1 269:1 270:1 271:1 287:1 294:1 300:1 301:1 304:1 306:1 317:1 335:1 337:1 345:1 346:1 347:1 352:1 360:1 363:1 365:1 372:1 373:1 384:1 402:1 403:1 411:1 413:1 417:1 422:1 424:1 437:1 446:1 452:1 453:1 454:1 455:1 459:1 464:1 477:1 478:1 480:1 484:1 490:1 491:1 495:1 
0.9971268820875918 0.9999987576593484 0.9999995417899527 0.9993892627741257 1:1 2:1 5:1 7:1 13:1 15:1 16:1 17:1 19:1 20:1 32:1 35:1 39:1 40:1 43:1 49:1 53:1 59:1 64:1 70:1 73:1 83:1 87:1 89:1 90:1 92:1 126:1 141:1 144:1 147:1 150:1 151:1 155:1 158:1 168:1 169:1 178:1 189:1 191:1 270:1 282:1 287:1 294:1 305:1 306:1 307:1 308:1 312:1 316:1 317:1 322:1 330:1 336:1 338:1 345:1 354:1 366:1 370:1 372:1 373:1 382:1 388:1 392:1 406:1 411:1 424:1 426:1 433:1 437:1 438:1 440:1 446:1 448:1 452:1 453:1 454:1 455:1 464:1 466:1 471:1 482:1 491:1 492:1 493:1 494:1 495:1 
0.9971117791970769 1.000000185858865 1.000000190513431 0.9990270566953291 2:1 5:1 8:1 18:1 20:1 23:1 27:1 30:1 31:1 33:1 34:1 41:1 82:1 141:1 144:1 156:1 192:1 240:1 282:1 306:1 337:1 344:1 347:1 360:1 362:1 378:1 392:1 405:1 408:1 411:1 412:1 414:1 417:1 423:1 429:1 437:1 442:1 446:1 451:1 453:1 459:1 464:1 477:1 478:1 484:1 490:1 497:1 
0.9970034362462185 0.999997975874139 0.9999889620108571 0.9993878149239646 1:1 2:1 5:1 7:1 8:1 13:1 15:1 16:1 17:1 18:1 19:1 20:1 23:1 25:1 27:1 28:1 31:1 32:1 35:1 38:1 41:1 42:1 43:1 46:1 49:1 50:1 53:1 56:1 59:1 64:1 66:1 70:1 73:1 75:1 79:1 82:1 83:1 87:1 90:1 92:1 97:1 100:1 141:1 144:1 150:1 189:1 191:1 217:1 235:1 283:1 289:1 291:1 301:1 303:1 306:1 312:1 316:1 317:1 330:1 335:1 337:1 338:1 341:1 345:1 355:1 360:1 371:1 372:1 376:1 378:1 382:1 388:1 391:1 392:1 398:1 400:1 403:1 406:1 411:1 417:1 422:1 424:1 426:1 435:1 437:1 446:1 452:1 453:1 454:1 464:1 482:1 491:1 492:1 493:1 
0.9969120979387486 0.9999998645898949 0.9999999708884106 0.9994205896250312 1:1 2:1 5:1 7:1 20:1 24:1 25:1 27:1 38:1 39:1 40:1 46:1 50:1 59:1 83:1 89:1 92:1 100:1 132:1 135:1 138:1 141:1 142:1 143:1 155:1 181:1 189:1 193:1 217:1 218:1 249:1 262:1 264:1 270:1 282:1 287:1 289:1 291:1 305:1 306:1 307:1 312:1 337:1 338:1 341:1 347:1 360:1 363:1 378:1 388:1 391:1 392:1 406:1 407:1 411:1 417:1 422:1 424:1 426:1 433:1 437:1 446:1 448:1 452:1 454:1 455:1 459:1 464:1 466:1 477:1 484:1 491:1 493:1 495:1 
0.9969853417938666 0.9999990836967958 0.9999964111762332 0.999088244599605 1:1 2:1 5:1 7:1 8:1 13:1 15:1 16:1 17:1 18:1 19:1 20:1 23:1 24:1 28:1 31:1 32:1 39:1 40:1 43:1 73:1 79:1 81:1 83:1 89:1 90:1 92:1 97:1 125:1 126:1 141:1 144:1 150:1 151:1 155:1 160:1 166:1 170:1 186:1 191:1 205:1 282:1 287:1 301:1 304:1 305:1 312:1 316:1 317:1 319:1 322:1 330:1 337:1 338:1 345:1 347:1 354:1 355:1 356:1 366:1 371:1 376:1 378:1 382:1 384:1 388:1 391:1 392:1 406:1 411:1 426:1 437:1 446:1 452:1 453:1 454:1 464:1 491:1 492:1 493:1 494:1 497:1 
0.9973972717540294 1.000075397630868 1.000077365168594 0.9993953440123603 2:1 5:1 20:1 38:1 50:1 92:1 97:1 141:1 155:1 157:1 260:1 270:1 307:1 337:1 338:1 341:1 342:1 360:1 403:1 424:1 426:1 440:1 454:1 471:1 476:1 485:1 492:1 494:1 
0.9973541663609983 0.9991788005722978 0.9998288653305945 0.9993063727580669 1:1 2:1 5:1 7:1 8:1 13:1 16:1 17:1 18:1 19:1 20:1 23:1 25:1 27:1 28:1 30:1 31:1 32:1 33:1 35:1 38:1 40:1 41:1 42:1 43:1 46:1 49:1 50:1 53:1 56:1 58:1 59:1 62:1 64:1 66:1 70:1 71:1 73:1 75:1 79:1 82:1 90:1 92:1 97:1 100:1 141:1 150:1 166:1 217:1 270:1 294:1 301:1 303:1 304:1 306:1 307:1 316:1 319:1 322:1 325:1 330:1 333:1 335:1 337:1 338:1 341:1 345:1 355:1 358:1 360:1 362:1 365:1 368:1 378:1 387:1 388:1 389:1 392:1 411:1 422:1 424:1 426:1 432:1 437:1 446:1 452:1 454:1 464:1 482:1 491:1 
0.9973683036293284 1.000000242472311 0.9999993160028368 0.9990905667792296 2:1 38:1 81:1 92:1 124:1 138:1 144:1 147:1 150:1 151:1 155:1 156:1 158:1 160:1 162:1 165:1 166:1 170:1 175:1 178:1 182:1 189:1 191:1 193:1 200:1 205:1 211:1 212:1 235:1 270:1 282:1 287:1 292:1 294:1 300:1 301:1 306:1 307:1 312:1 317:1 338:1 345:1 347:1 354:1 372:1 373:1 378:1 384:1 388:1 411:1 417:1 424:1 426:1 432:1 437:1 438:1 440:1 446:1 448:1 452:1 453:1 454:1 455:1 459:1 464:1 467:1 478:1 484:1 491:1 493:1 495:1 
0.9970656684080252 0.9990726099593242 0.9999907488025267 0.9993891268162242 1:1 2:1 7:1 13:1 16:1 17:1 19:1 20:1 31:1 35:1 39:1 40:1 42:1 49:1 53:1 59:1 64:1 81:1 83:1 89:1 90:1 92:1 126:1 141:1 142:1 144:1 151:1 152:1 155:1 158:1 169:1 181:1 189:1 190:1 191:1 193:1 198:1 270:1 282:1 287:1 294:1 301:1 305:1 306:1 307:1 312:1 316:1 317:1 319:1 322:1 325:1 338:1 345:1 347:1 354:1 363:1 372:1 378:1 388:1 391:1 403:1 411:1 417:1 422:1 424:1 426:1 433:1 437:1 440:1 446:1 448:1 452:1 453:1 454:1 455:1 459:1 464:1 476:1 478:1 484:1 491:1 493:1 494:1 495:1 497:1 
0.9971167426678827 0.9992951460577995 0.9999997801875768 0.9993889521673563 1:1 2:1 5:1 7:1 15:1 17:1 20:1 35:1 43:1 64:1 71:1 73:1 79:1 81:1 89:1 92:1 121:1 126:1 131:1 141:1 150:1 152:1 155:1 157:1 160:1 169:1 174:1 176:1 191:1 211:1 212:1 249:1 270:1 282:1 287:1 292:1 301:1 303:1 305:1 306:1 312:1 317:1 330:1 345:1 347:1 354:1 368:1 371:1 372:1 376:1 392:1 411:1 414:1 417:1 424:1 426:1 433:1 437:1 440:1 446:1 452:1 453:1 454:1 455:1 464:1 478:1 490:1 492:1 494:1 
0.9970242853384377 0.999362209227418 0.9999999080997036 0.9993908470309406 1:1 2:1 5:1 13:1 17:1 19:1 20:1 24:1 27:1 30:1 31:1 33:1 35:1 39:1 59:1 62:1 81:1 83:1 89:1 92:1 97:1 100:1 121:1 132:1 138:1 141:1 142:1 143:1 147:1 150:1 157:1 159:1 170:1 175:1 189:1 235:1 287:1 292:1 294:1 301:1 305:1 306:1 307:1 312:1 315:1 317:1 337:1 338:1 345:1 354:1 356:1 360:1 363:1 368:1 372:1 373:1 378:1 383:1 384:1 388:1 391:1 392:1 406:1 417:1 424:1 426:1 437:1 440:1 446:1 448:1 452:1 453:1 454:1 455:1 459:1 464:1 471:1 477:1 478:1 491:1 493:1 
0.9971269228336824 0.9999998225294499 1.000000003623196 0.9993902306866499 1:1 2:1 7:1 13:1 17:1 18:1 19:1 24:1 30:1 31:1 35:1 39:1 40:1 49:1 53:1 64:1 70:1 81:1 83:1 89:1 126:1 132:1 142:1 144:1 146:1 150:1 155:1 166:1 168:1 169:1 174:1 190:1 191:1 301:1 303:1 304:1 305:1 306:1 309:1 312:1 316:1 317:1 335:1 337:1 338:1 345:1 347:1 354:1 356:1 368:1 371:1 372:1 376:1 378:1 382:1 383:1 385:1 387:1 391:1 411:1 424:1 426:1 435:1 437:1 446:1 452:1 453:1 454:1 455:1 464:1 490:1 491:1 492:1 493:1 
0.9969433626792406 0.9991814965227511 0.9999984494222985 0.9993858477293356 1:1 2:1 5:1 8:1 13:1 16:1 18:1 20:1 23:1 24:1 25:1 27:1 28:1 31:1 32:1 35:1 40:1 41:1 42:1 46:1 49:1 50:1 56:1 58:1 59:1 82:1 90:1 92:1 100:1 138:1 141:1 143:1 155:1 182:1 186:1 205:1 217:1 301:1 303:1 304:1 305:1 306:1 311:1 315:1 322:1 326:1 330:1 335:1 337:1 338:1 341:1 344:1 349:1 354:1 356:1 360:1 365:1 370:1 371:1 373:1 376:1 377:1 378:1 382:1 387:1 391:1 392:1 398:1 406:1 411:1 421:1 424:1 426:1 433:1 437:1 440:1 446:1 454:1 455:1 464:1 491:1 492:1 497:1 
0.9968294365823095 0.9999988925500192 0.9999999603966924 0.999388784494918 1:1 2:1 5:1 7:1 13:1 16:1 17:1 19:1 20:1 25:1 28:1 35:1 38:1 39:1 40:1 49:1 50:1 53:1 64:1 70:1 71:1 81:1 82:1 89:1 90:1 92:1 141:1 142:1 144:1 158:1 166:1 182:1 191:1 200:1 203:1 212:1 217:1 260:1 270:1 273:1 287:1 289:1 294:1 301:1 303:1 305:1 306:1 307:1 312:1 317:1 338:1 340:1 345:1 347:1 354:1 360:1 364:1 368:1 388:1 392:1 403:1 406:1 411:1 424:1 426:1 433:1 437:1 440:1 446:1 448:1 453:1 454:1 455:1 459:1 464:1 466:1 471:1 476:1 491:1 492:1 494:1 495:1 497:1 
0.9969124422703234 0.9999994969471799 0.9999984314236668 0.9993877908295158 1:1 2:1 5:1 8:1 13:1 15:1 16:1 17:1 19:1 20:1 23:1 30:1 32:1 33:1 35:1 39:1 40:1 42:1 50:1 53:1 66:1 73:1 75:1 87:1 89:1 90:1 92:1 97:1 138:1 141:1 150:1 155:1 160:1 166:1 182:1 191:1 194:1 217:1 249:1 301:1 303:1 305:1 306:1 307:1 330:1 337:1 338:1 354:1 355:1 356:1 368:1 373:1 376:1 382:1 388:1 389:1 391:1 392:1 400:1 411:1 424:1 426:1 433:1 437:1 440:1 445:1 446:1 452:1 454:1 464:1 471:1 476:1 491:1 492:1 493:1 
0.9970449672438857 0.9994391033755421 0.9999995854535866 0.9994014698612153 1:1 2:1 7:1 15:1 16:1 38:1 83:1 89:1 132:1 138:1 141:1 144:1 146:1 150:1 157:1 160:1 166:1 178:1 181:1 182:1 189:1 193:1 196:1 199:1 205:1 217:1 235:1 249:1 254:1 282:1 287:1 292:1 294:1 295:1 296:1 306:1 307:1 312:1 317:1 345:1 347:1 348:1 354:1 360:1 363:1 368:1 372:1 373:1 377:1 388:1 391:1 392:1 405:1 406:1 411:1 417:1 424:1 425:1 426:1 433:1 437:1 446:1 452:1 453:1 454:1 455:1 464:1 478:1 490:1 491:1 493:1 494:1 495:1 
0.9971721902475587 0.9992200899862014 0.9999999968784578 0.9994177755319741 1:1 2:1 5:1 7:1 8:1 13:1 16:1 18:1 19:1 20:1 23:1 25:1 27:1 28:1 32:1 35:1 38:1 39:1 40:1 42:1 64:1 73:1 81:1 82:1 89:1 90:1 92:1 121:1 138:1 141:1 144:1 146:1 149:1 150:1 151:1 155:1 160:1 165:1 168:1 175:1 176:1 178:1 186:1 191:1 201:1 202:1 217:1 235:1 270:1 273:1 283:1 289:1 292:1 301:1 305:1 306:1 307:1 312:1 317:1 330:1 345:1 347:1 354:1 356:1 363:1 364:1 366:1 371:1 372:1 376:1 378:1 382:1 383:1 384:1 385:1 388:1 389:1 391:1 392:1 398:1 406:1 409:1 411:1 426:1 433:1 437:1 446:1 448:1 452:1 453:1 454:1 455:1 459:1 464:1 478:1 491:1 492:1 493:1 494:1 495:1 
0.9968200078342825 0.9993749445799881 0.9999999816032784 0.9990270746879319 1:1 2:1 5:1 8:1 16:1 17:1 19:1 20:1 23:1 27:1 30:1 31:1 33:1 39:1 43:1 62:1 64:1 75:1 81:1 83:1 89:1 100:1 141:1 150:1 151:1 155:1 182:1 189:1 193:1 199:1 234:1 273:1 282:1 301:1 302:1 305:1 306:1 307:1 308:1 310:1 312:1 317:1 319:1 323:1 335:1 337:1 340:1 341:1 345:1 347:1 355:1 356:1 360:1 366:1 373:1 380:1 382:1 391:1 392:1 399:1 400:1 411:1 426:1 437:1 440:1 446:1 452:1 453:1 454:1 455:1 464:1 491:1 
0.9970049396513753 0.9993816183601524 0.9999999917182096 0.9989406894390382 1:1 13:1 15:1 16:1 19:1 30:1 32:1 38:1 40:1 42:1 71:1 82:1 126:1 132:1 135:1 141:1 144:1 150:1 151:1 155:1 160:1 169:1 176:1 181:1 189:1 199:1 200:1 205:1 234:1 235:1 246:1 287:1 301:1 303:1 304:1 305:1 306:1 307:1 309:1 310:1 312:1 316:1 317:1 319:1 323:1 333:1 335:1 336:1 337:1 338:1 340:1 342:1 344:1 345:1 347:1 356:1 368:1 370:1 371:1 372:1 376:1 382:1 383:1 384:1 387:1 389:1 390:1 391:1 398:1 400:1 411:1 424:1 426:1 437:1 446:1 448:1 452:1 453:1 454:1 455:1 464:1 491:1 492:1 493:1 494:1 495:1 497:1 
0.9972953989538496 0.9994783543900755 0.9999944102896796 0.9989422818598548 1:1 30:1 42:1 73:1 81:1 83:1 87:1 92:1 121:1 125:1 126:1 131:1 132:1 135:1 138:1 146:1 147:1 149:1 151:1 157:1 158:1 159:1 160:1 166:1 168:1 174:1 176:1 178:1 181:1 190:1 191:1 193:1 196:1 198:1 202:1 205:1 214:1 235:1 249:1 250:1 262:1 282:1 287:1 292:1 294:1 299:1 301:1 304:1 307:1 309:1 312:1 317:1 323:1 335:1 338:1 345:1 347:1 354:1 356:1 363:1 371:1 372:1 373:1 376:1 378:1 383:1 384:1 388:1 391:1 411:1 417:1 424:1 426:1 437:1 443:1 446:1 448:1 452:1 453:1 454:1 455:1 464:1 478:1 491:1 492:1 493:1 494:1 495:1 
0.9969119951375655 0.9993827177375534 0.9999997275850275 0.9994012795388164 1:1 2:1 5:1 13:1 15:1 16:1 17:1 19:1 28:1 30:1 32:1 35:1 39:1 40:1 42:1 49:1 53:1 58:1 73:1 81:1 82:1 83:1 89:1 90:1 92:1 121:1 126:1 131:1 135:1 138:1 141:1 143:1 146:1 150:1 155:1 160:1 166:1 168:1 169:1 176:1 181:1 186:1 191:1 198:1 217:1 235:1 282:1 287:1 289:1 294:1 301:1 305:1 306:1 307:1 310:1 312:1 317:1 319:1 320:1 337:1 338:1 345:1 347:1 350:1 354:1 356:1 363:1 368:1 371:1 372:1 373:1 376:1 382:1 384:1 388:1 389:1 391:1 392:1 411:1 421:1 424:1 426:1 433:1 437:1 440:1 446:1 452:1 453:1 454:1 455:1 459:1 464:1 478:1 491:1 492:1 493:1 
0.9974012820797941 0.9992989339035806 0.9999999942193537 0.9990312435837915 2:1 5:1 17:1 19:1 32:1 33:1 38:1 40:1 53:1 56:1 58:1 66:1 79:1 90:1 92:1 126:1 130:1 131:1 132:1 141:1 143:1 144:1 151:1 166:1 170:1 189:1 190:1 191:1 193:1 201:1 205:1 212:1 217:1 218:1 224:1 262:1 270:1 271:1 287:1 294:1 301:1 304:1 307:1 312:1 316:1 317:1 336:1 337:1 338:1 340:1 344:1 345:1 347:1 354:1 355:1 360:1 363:1 372:1 373:1 378:1 382:1 384:1 388:1 389:1 391:1 397:1 411:1 417:1 424:1 426:1 437:1 440:1 443:1 446:1 448:1 452:1 453:1 454:1 455:1 464:1 471:1 478:1 491:1 493:1 494:1 495:1 
0.9969437133139795 0.9993686667997405 0.9999999511049885 0.9990658554861613 1:1 2:1 5:1 8:1 13:1 16:1 17:1 18:1 19:1 23:1 24:1 25:1 27:1 32:1 33:1 38:1 40:1 41:1 53:1 58:1 59:1 62:1 70:1 75:1 82:1 83:1 97:1 121:1 126:1 131:1 132:1 141:1 144:1 146:1 147:1 150:1 151:1 156:1 158:1 160:1 162:1 165:1 166:1 168:1 169:1 170:1 178:1 182:1 189:1 193:1 200:1 205:1 282:1 287:1 294:1 301:1 306:1 307:1 312:1 316:1 317:1 323:1 324:1 337:1 341:1 345:1 347:1 360:1 363:1 372:1 373:1 381:1 383:1 384:1 391:1 411:1 417:1 422:1 424:1 426:1 437:1 446:1 452:1 453:1 454:1 455:1 464:1 474:1 477:1 478:1 480:1 491:1 494:1 495:1 
0.9969401004781454 0.9990956359153527 0.9999367717990708 0.9990296074079776 2:1 7:1 35:1 40:1 64:1 71:1 81:1 83:1 121:1 124:1 125:1 126:1 131:1 132:1 138:1 143:1 144:1 146:1 147:1 149:1 150:1 151:1 152:1 155:1 156:1 157:1 158:1 159:1 160:1 166:1 168:1 169:1 170:1 174:1 175:1 178:1 181:1 190:1 193:1 196:1 198:1 199:1 200:1 205:1 218:1 235:1 237:1 244:1 249:1 262:1 282:1 287:1 291:1 292:1 294:1 301:1 305:1 307:1 317:1 333:1 338:1 345:1 347:1 355:1 368:1 371:1 372:1 373:1 378:1 380:1 384:1 388:1 391:1 405:1 411:1 417:1 424:1 426:1 437:1 440:1 443:1 445:1 446:1 448:1 452:1 453:1 454:1 455:1 459:1 464:1 477:1 478:1 490:1 491:1 493:1 495:1 
0.9974721981960953 0.9992989340685449 0.9999999952706771 0.9990271459207889 1:1 2:1 7:1 15:1 16:1 17:1 30:1 32:1 35:1 38:1 40:1 42:1 46:1 53:1 64:1 70:1 71:1 131:1 141:1 143:1 144:1 146:1 150:1 156:1 159:1 160:1 162:1 165:1 175:1 189:1 191:1 193:1 198:1 200:1 212:1 217:1 235:1 249:1 270:1 287:1 289:1 294:1 295:1 301:1 305:1 306:1 310:1 315:1 317:1 319:1 320:1 330:1 337:1 338:1 341:1 345:1 347:1 354:1 360:1 372:1 373:1 376:1 378:1 382:1 384:1 387:1 388:1 392:1 406:1 411:1 415:1 417:1 424:1 426:1 433:1 437:1 440:1 446:1 452:1 453:1 454:1 459:1 464:1 466:1 476:1 478:1 491:1 493:1 494:1 495:1 
0.9971115767174268 0.9994745894792967 1.000000001453128 0.9992620504114261 1:1 16:1 40:1 73:1 92:1 97:1 104:1 121:1 126:1 127:1 130:1 131:1 143:1 147:1 150:1 155:1 158:1 160:1 169:1 185:1 190:1 191:1 205:1 211:1 212:1 234:1 249:1 269:1 270:1 282:1 287:1 294:1 299:1 301:1 304:1 307:1 309:1 312:1 316:1 317:1 319:1 323:1 330:1 345:1 347:1 354:1 372:1 373:1 378:1 382:1 383:1 384:1 391:1 406:1 411:1 417:1 426:1 433:1 437:1 446:1 452:1 453:1 454:1 455:1 464:1 471:1 484:1 492:1 493:1 494:1 495:1 
0.9967903039952946 0.9999995187075297 0.9999991874040992 0.9990657745533801 1:1 2:1 5:1 7:1 13:1 16:1 17:1 19:1 20:1 28:1 32:1 38:1 39:1 42:1 49:1 73:1 79:1 83:1 89:1 92:1 122:1 131:1 135:1 141:1 217:1 270:1 282:1 287:1 292:1 301:1 303:1 306:1 308:1 312:1 317:1 338:1 340:1 345:1 347:1 354:1 356:1 366:1 372:1 376:1 378:1 384:1 388:1 391:1 392:1 400:1 406:1 411:1 421:1 424:1 426:1 433:1 437:1 438:1 446:1 452:1 453:1 455:1 459:1 464:1 471:1 476:1 478:1 491:1 492:1 493:1 494:1 497:1 
0.9972362128655513 0.9999997926774679 0.9999996832263967 0.9993990930105983 1:1 7:1 15:1 16:1 39:1 42:1 49:1 53:1 70:1 71:1 81:1 83:1 92:1 126:1 143:1 150:1 151:1 155:1 166:1 178:1 181:1 182:1 217:1 283:1 292:1 305:1 306:1 317:1 338:1 345:1 354:1 360:1 372:1 373:1 378:1 388:1 391:1 392:1 403:1 406:1 411:1 417:1 424:1 426:1 433:1 435:1 437:1 440:1 443:1 446:1 453:1 454:1 455:1 459:1 464:1 466:1 471:1 476:1 478:1 482:1 484:1 491:1 492:1 493:1 495:1 497:1 
0.9976491980769031 0.9991157412559861 0.9999988754469388 0.999027035781848 15:1 121:1 124:1 125:1 126:1 131:1 132:1 135:1 138:1 144:1 151:1 156:1 157:1 162:1 165:1 166:1 168:1 178:1 198:1 200:1 202:1 205:1 216:1 218:1 227:1 235:1 237:1 240:1 249:1 282:1 287:1 289:1 292:1 294:1 317:1 345:1 347:1 373:1 391:1 392:1 406:1 411:1 417:1 422:1 437:1 446:1 447:1 451:1 452:1 453:1 454:1 455:1 459:1 464:1 466:1 477:1 478:1 490:1 493:1 
0.9974152741578379 0.9999997155650552 0.9999994718315747 0.9990368941919012 1:1 2:1 5:1 7:1 8:1 13:1 16:1 18:1 19:1 20:1 24:1 25:1 28:1 31:1 39:1 40:1 41:1 49:1 59:1 64:1 70:1 73:1 81:1 117:1 144:1 173:1 217:1 282:1 301:1 303:1 304:1 305:1 306:1 309:1 317:1 322:1 335:1 337:1 338:1 341:1 345:1 346:1 347:1 354:1 360:1 374:1 384:1 392:1 398:1 406:1 411:1 424:1 437:1 446:1 452:1 453:1 454:1 466:1 
0.99711187331566 0.9993807046106061 0.9994963304502651 0.9993899245245831 1:1 2:1 5:1 7:1 8:1 13:1 16:1 17:1 18:1 19:1 20:1 23:1 24:1 25:1 27:1 28:1 30:1 31:1 32:1 33:1 38:1 39:1 41:1 42:1 46:1 49:1 50:1 53:1 56:1 58:1 59:1 64:1 66:1 71:1 73:1 79:1 82:1 83:1 87:1 90:1 92:1 97:1 100:1 122:1 141:1 147:1 158:1 182:1 189:1 193:1 205:1 234:1 241:1 270:1 289:1 301:1 306:1 307:1 319:1 322:1 330:1 337:1 338:1 341:1 354:1 356:1 360:1 365:1 371:1 372:1 378:1 382:1 392:1 406:1 411:1 417:1 424:1 433:1 437:1 453:1 454:1 455:1 456:1 464:1 477:1 482:1 
0.9970192708021332 0.9993666342864296 0.9999958240657212 0.9993857924664471 1:1 2:1 5:1 7:1 8:1 13:1 15:1 16:1 17:1 18:1 19:1 20:1 23:1 25:1 27:1 28:1 30:1 31:1 32:1 35:1 38:1 39:1 40:1 41:1 42:1 43:1 46:1 49:1 50:1 56:1 58:1 59:1 62:1 66:1 71:1 73:1 81:1 90:1 92:1 100:1 141:1 143:1 150:1 173:1 182:1 191:1 217:1 234:1 264:1 270:1 301:1 303:1 305:1 306:1 312:1 315:1 330:1 335:1 337:1 338:1 341:1 354:1 358:1 360:1 363:1 368:1 376:1 387:1 392:1 403:1 406:1 411:1 421:1 424:1 430:1 433:1 437:1 446:1 452:1 454:1 464:1 482:1 492:1 
0.9973211607049276 0.9989547132419592 0.9991568493249824 0.9990490606868946 1:1 2:1 5:1 7:1 8:1 13:1 16:1 17:1 18:1 19:1 20:1 23:1 24:1 25:1 27:1 28:1 30:1 31:1 32:1 33:1 34:1 35:1 38:1 41:1 42:1 43:1 46:1 49:1 50:1 53:1 56:1 58:1 59:1 62:1 64:1 66:1 71:1 73:1 75:1 79:1 82:1 90:1 92:1 97:1 100:1 141:1 150:1 155:1 182:1 217:1 270:1 301:1 303:1 304:1 305:1 306:1 307:1 311:1 312:1 315:1 317:1 322:1 325:1 330:1 335:1 336:1 337:1 338:1 341:1 342:1 344:1 347:1 348:1 352:1 356:1 358:1 360:1 362:1 363:1 364:1 365:1 371:1 372:1 376:1 382:1 387:1 388:1 389:1 391:1 392:1 398:1 411:1 417:1 424:1 433:1 437:1 446:1 454:1 464:1 482:1 491:1 492:1 493:1 
0.9972355316088954 0.9993344110227744 0.9991738613715554 0.9993405299629756 1:1 2:1 5:1 7:1 8:1 13:1 15:1 16:1 17:1 19:1 20:1 23:1 24:1 25:1 27:1 30:1 31:1 32:1 33:1 35:1 38:1 40:1 41:1 42:1 43:1 46:1 49:1 50:1 53:1 56:1 58:1 62:1 64:1 66:1 70:1 71:1 73:1 75:1 79:1 82:1 90:1 92:1 97:1 141:1 150:1 165:1 166:1 182:1 193:1 234:1 294:1 301:1 303:1 304:1 306:1 307:1 311:1 316:1 317:1 322:1 325:1 330:1 335:1 337:1 338:1 341:1 344:1 347:1 355:1 358:1 360:1 362:1 365:1 368:1 372:1 373:1 380:1 382:1 387:1 388:1 391:1 392:1 400:1 411:1 426:1 437:1 446:1 452:1 453:1 454:1 464:1 480:1 491:1 
0.9975132611100935 0.9992951617234057 0.9999999960838236 0.9994312140619722 1:1 2:1 5:1 7:1 8:1 13:1 16:1 17:1 19:1 23:1 25:1 31:1 32:1 33:1 34:1 35:1 38:1 43:1 56:1 58:1 62:1 64:1 70:1 71:1 73:1 81:1 82:1 90:1 97:1 126:1 132:1 141:1 143:1 144:1 147:1 150:1 151:1 152:1 155:1 157:1 160:1 162:1 169:1 170:1 175:1 178:1 182:1 186:1 190:1 191:1 199:1 205:1 235:1 282:1 294:1 301:1 304:1 305:1 306:1 312:1 316:1 317:1 337:1 345:1 347:1 360:1 363:1 365:1 371:1 372:1 373:1 376:1 378:1 382:1 384:1 391:1 392:1 398:1 411:1 414:1 417:1 424:1 425:1 437:1 442:1 445:1 446:1 452:1 453:1 454:1 462:1 464:1 472:1 477:1 478:1 480:1 491:1 493:1 495:1 500:1 
0.9969111571308753 0.9999993112742868 0.9999982551446769 0.9992587018232607 1:1 2:1 25:1 27:1 32:1 41:1 58:1 59:1 62:1 82:1 83:1 124:1 132:1 141:1 144:1 150:1 156:1 159:1 162:1 166:1 169:1 189:1 193:1 200:1 202:1 205:1 212:1 216:1 235:1 240:1 246:1 249:1 270:1 282:1 287:1 294:1 301:1 304:1 317:1 335:1 337:1 338:1 345:1 347:1 360:1 372:1 378:1 384:1 388:1 391:1 402:1 403:1 406:1 411:1 417:1 422:1 424:1 426:1 437:1 446:1 453:1 454:1 455:1 456:1 459:1 464:1 482:1 495:1 
0.9971265687722782 0.9991058101428479 0.9999938067128344 0.9993906165411596 2:1 5:1 13:1 16:1 17:1 19:1 20:1 24:1 25:1 27:1 38:1 39:1 46:1 49:1 50:1 53:1 58:1 59:1 70:1 75:1 79:1 82:1 92:1 97:1 126:1 141:1 143:1 144:1 146:1 150:1 158:1 166:1 170:1 199:1 200:1 217:1 260:1 270:1 287:1 289:1 294:1 301:1 306:1 312:1 316:1 317:1 330:1 337:1 338:1 341:1 345:1 347:1 354:1 360:1 363:1 372:1 378:1 388:1 391:1 392:1 406:1 411:1 424:1 426:1 433:1 437:1 440:1 446:1 452:1 453:1 454:1 455:1 459:1 464:1 466:1 491:1 492:1 493:1 494:1 495:1 
0.9973533317550696 0.9994360275260463 0.9993604446647067 0.9993862607601621 2:1 15:1 25:1 30:1 39:1 46:1 81:1 83:1 89:1 121:1 126:1 131:1 141:1 144:1 146:1 151:1 157:1 160:1 162:1 166:1 168:1 169:1 174:1 176:1 181:1 191:1 198:1 205:1 235:1 282:1 292:1 294:1 299:1 305:1 306:1 312:1 316:1 317:1 337:1 345:1 347:1 356:1 360:1 368:1 373:1 376:1 378:1 384:1 391:1 392:1 411:1 417:1 424:1 437:1 446:1 452:1 453:1 454:1 455:1 477:1 478:1 490:1 493:1 495:1 
0.9973535982039405 0.9992952074540433 0.9999997820696862 0.9993882282026613 1:1 2:1 5:1 7:1 13:1 16:1 30:1 39:1 40:1 89:1 122:1 126:1 132:1 138:1 143:1 144:1 146:1 150:1 151:1 155:1 158:1 160:1 166:1 189:1 190:1 191:1 193:1 200:1 212:1 229:1 262:1 270:1 287:1 291:1 294:1 301:1 305:1 306:1 307:1 308:1 312:1 316:1 317:1 338:1 345:1 347:1 354:1 366:1 372:1 373:1 378:1 384:1 388:1 391:1 392:1 398:1 400:1 405:1 406:1 411:1 417:1 424:1 426:1 433:1 437:1 438:1 446:1 452:1 453:1 454:1 455:1 459:1 464:1 466:1 477:1 478:1 491:1 492:1 493:1 494:1 497:1 
0.996818123341232 0.9992970327760735 0.9999956900001783 0.9992568790761628 1:1 2:1 5:1 7:1 8:1 13:1 15:1 16:1 17:1 19:1 20:1 23:1 24:1 25:1 27:1 28:1 31:1 32:1 33:1 35:1 39:1 40:1 42:1 43:1 46:1 49:1 50:1 56:1 58:1 66:1 70:1 71:1 73:1 81:1 83:1 87:1 90:1 92:1 97:1 100:1 122:1 141:1 150:1 166:1 217:1 234:1 235:1 283:1 299:1 301:1 302:1 303:1 304:1 305:1 306:1 307:1 309:1 310:1 320:1 323:1 330:1 335:1 336:1 337:1 338:1 341:1 342:1 344:1 350:1 354:1 355:1 356:1 360:1 362:1 365:1 371:1 373:1 376:1 378:1 382:1 388:1 392:1 398:1 426:1 435:1 437:1 453:1 454:1 492:1 493:1 
0.9971152809473403 0.9992951076515212 0.9999998578973514 0.9993883726332363 1:1 8:1 16:1 19:1 40:1 49:1 81:1 83:1 92:1 126:1 132:1 135:1 141:1 143:1 144:1 150:1 151:1 155:1 160:1 166:1 168:1 170:1 174:1 181:1 189:1 191:1 198:1 199:1 205:1 214:1 234:1 249:1 262:1 270:1 282:1 292:1 294:1 299:1 301:1 305:1 307:1 309:1 312:1 317:1 319:1 326:1 333:1 336:1 337:1 338:1 340:1 342:1 345:1 347:1 354:1 372:1 373:1 376:1 382:1 383:1 391:1 411:1 417:1 424:1 426:1 437:1 440:1 446:1 448:1 452:1 453:1 454:1 455:1 459:1 464:1 478:1 491:1 493:1 494:1 
8 8 8 0.9993891876993455 19:1 49:1 58:1 132:1 138:1 143:1 144:1 146:1 147:1 159:1 162:1 170:1 178:1 189:1 193:1 200:1 235:1 262:1 284:1 287:1 294:1 296:1 299:1 317:1 345:1 347:1 363:1 372:1 384:1 403:1 411:1 415:1 417:1 424:1 426:1 433:1 437:1 446:1 448:1 452:1 454:1 459:1 464:1 471:1 490:1 491:1 492:1 493:1 494:1 495:1 
0.9973534813195322 0.9993839732620289 0.999999764008316 0.9993854379289755 1:1 2:1 5:1 7:1 13:1 15:1 16:1 17:1 18:1 19:1 20:1 23:1 24:1 25:1 27:1 28:1 31:1 32:1 35:1 38:1 40:1 42:1 49:1 50:1 53:1 56:1 58:1 59:1 64:1 70:1 71:1 73:1 79:1 83:1 97:1 100:1 121:1 131:1 141:1 144:1 150:1 151:1 152:1 155:1 160:1 166:1 169:1 173:1 174:1 176:1 182:1 198:1 205:1 282:1 287:1 294:1 301:1 303:1 304:1 305:1 308:1 312:1 316:1 317:1 330:1 337:1 338:1 345:1 347:1 354:1 356:1 362:1 371:1 372:1 376:1 378:1 382:1 383:1 384:1 388:1 391:1 398:1 411:1 424:1 426:1 437:1 446:1 452:1 453:1 454:1 455:1 459:1 464:1 478:1 491:1 492:1 495:1 
0.9975771036929115 0.9994376302298111 0.9999998657241624 0.9993901052417942 1:1 2:1 5:1 7:1 8:1 13:1 16:1 17:1 19:1 25:1 27:1 30:1 31:1 32:1 33:1 35:1 38:1 40:1 42:1 49:1 53:1 64:1 70:1 73:1 92:1 97:1 121:1 126:1 132:1 141:1 144:1 146:1 147:1 150:1 151:1 152:1 158:1 159:1 160:1 166:1 170:1 175:1 181:1 189:1 191:1 193:1 205:1 257:1 260:1 282:1 287:1 289:1 294:1 301:1 303:1 304:1 305:1 306:1 312:1 315:1 316:1 317:1 319:1 322:1 323:1 330:1 337:1 338:1 340:1 341:1 344:1 345:1 347:1 348:1 354:1 356:1 358:1 360:1 363:1 372:1 376:1 382:1 383:1 384:1 387:1 388:1 391:1 392:1 411:1 424:1 426:1 437:1 446:1 448:1 452:1 453:1 454:1 464:1 466:1 478:1 491:1 492:1 493:1 494:1 
0.9988173592864956 0.9991484630280021 0.9992170346126323 0.9996816660107573 1:1 5:1 7:1 15:1 16:1 71:1 81:1 83:1 121:1 124:1 125:1 126:1 131:1 138:1 144:1 146:1 147:1 149:1 150:1 151:1 152:1 155:1 156:1 157:1 158:1 159:1 160:1 162:1 165:1 166:1 168:1 169:1 170:1 174:1 176:1 178:1 181:1 190:1 191:1 193:1 196:1 198:1 199:1 205:1 217:1 218:1 235:1 237:1 249:1 282:1 287:1 292:1 294:1 301:1 306:1 316:1 317:1 338:1 345:1 347:1 354:1 363:1 368:1 371:1 372:1 373:1 376:1 378:1 384:1 388:1 391:1 411:1 417:1 426:1 437:1 446:1 452:1 453:1 454:1 455:1 459:1 464:1 477:1 478:1 490:1 491:1 493:1 495:1 
0.9971166586504959 0.9994383738889779 0.9999999034123213 0.9993906560301435 1:1 2:1 5:1 7:1 8:1 16:1 17:1 19:1 23:1 30:1 33:1 38:1 39:1 40:1 42:1 53:1 59:1 71:1 75:1 81:1 83:1 89:1 121:1 126:1 141:1 142:1 150:1 151:1 152:1 155:1 158:1 166:1 168:1 178:1 181:1 186:1 198:1 199:1 200:1 205:1 212:1 217:1 234:1 235:1 287:1 294:1 301:1 303:1 304:1 305:1 306:1 307:1 308:1 315:1 317:1 337:1 338:1 345:1 347:1 363:1 370:1 372:1 373:1 376:1 377:1 378:1 384:1 387:1 388:1 391:1 392:1 398:1 406:1 411:1 417:1 424:1 426:1 433:1 437:1 438:1 446:1 448:1 452:1 453:1 454:1 455:1 464:1 474:1 477:1 491:1 493:1 494:1 495:1 
0.997171061000874 0.9994735186741469 0.9999917873970304 0.9993885249205395 1:1 2:1 5:1 7:1 13:1 15:1 16:1 17:1 19:1 20:1 23:1 25:1 30:1 32:1 33:1 35:1 38:1 40:1 41:1 42:1 46:1 49:1 53:1 56:1 58:1 59:1 62:1 64:1 66:1 70:1 71:1 75:1 79:1 82:1 83:1 90:1 92:1 97:1 141:1 144:1 150:1 152:1 166:1 173:1 217:1 287:1 294:1 301:1 303:1 305:1 306:1 312:1 316:1 317:1 319:1 325:1 330:1 333:1 337:1 338:1 341:1 345:1 347:1 359:1 360:1 363:1 371:1 372:1 376:1 382:1 388:1 392:1 400:1 411:1 424:1 426:1 433:1 437:1 446:1 452:1 453:1 454:1 455:1 464:1 474:1 491:1 493:1 494:1 
0.9971278621772254 0.999381968064381 0.9993607201371024 0.9993900966133369 1:1 2:1 32:1 39:1 42:1 81:1 92:1 121:1 125:1 126:1 138:1 142:1 144:1 146:1 149:1 151:1 152:1 155:1 158:1 159:1 166:1 168:1 169:1 178:1 181:1 189:1 190:1 191:1 198:1 200:1 205:1 212:1 217:1 235:1 282:1 287:1 292:1 294:1 305:1 306:1 316:1 317:1 338:1 341:1 345:1 347:1 363:1 372:1 373:1 376:1 378:1 385:1 388:1 391:1 392:1 406:1 411:1 417:1 421:1 424:1 426:1 435:1 437:1 440:1 446:1 452:1 453:1 454:1 455:1 459:1 464:1 477:1 490:1 491:1 493:1 495:1 497:1 
-1.002995172771094 1.002100648452621 1.002994562984991 1.001928563806857 1:1 2:1 5:1 7:1 15:1 20:1 23:1 27:1 33:1 38:1 40:1 42:1 59:1 71:1 75:1 90:1 92:1 97:1 100:1 138:1 141:1 143:1 150:1 151:1 166:1 191:1 192:1 193:1 205:1 217:1 234:1 235:1 282:1 287:1 289:1 292:1 294:1 301:1 303:1 305:1 306:1 312:1 317:1 323:1 335:1 337:1 338:1 341:1 345:1 347:1 354:1 356:1 363:1 368:1 372:1 373:1 376:1 378:1 391:1 392:1 403:1 406:1 411:1 422:1 424:1 426:1 433:1 437:1 446:1 452:1 453:1 454:1 459:1 464:1 471:1 491:1 493:1 497:1 
-1.002857799923106 1.003004045208832 1.002363176546401 1.001931266294971 119:1 144:1 155:1 158:1 160:1 166:1 178:1 189:1 191:1 193:1 212:1 262:1 270:1 282:1 287:1 289:1 306:1 338:1 345:1 411:1 416:1 417:1 424:1 426:1 437:1 446:1 448:1 452:1 453:1 459:1 464:1 466:1 478:1 484:1 495:1 
-1.004458862511136 1.182207296074756 1.182756282776664 1.000101329521543 117:1 125:1 135:1 235:1 252:1 292:1 
-1.002979601532319 1.002373842360998 1.002353948083468 1.001939113693788 53:1 108:1 121:1 126:1 127:1 135:1 138:1 141:1 143:1 144:1 147:1 150:1 151:1 158:1 160:1 166:1 170:1 181:1 182:1 189:1 190:1 191:1 193:1 196:1 199:1 200:1 205:1 211:1 216:1 270:1 287:1 292:1 294:1 317:1 338:1 344:1 345:1 363:1 372:1 384:1 388:1 403:1 406:1 411:1 415:1 417:1 424:1 426:1 432:1 437:1 440:1 446:1 448:1 452:1 453:1 454:1 459:1 464:1 477:1 478:1 484:1 491:1 493:1 495:1 497:1 
-1.002717002989995 1.002051830790825 1.002942173227224 1.001873645529474 104:1 108:1 117:1 121:1 126:1 130:1 131:1 135:1 138:1 143:1 147:1 157:1 160:1 168:1 169:1 170:1 175:1 176:1 191:1 196:1 198:1 205:1 235:1 282:1 292:1 294:1 299:1 301:1 307:1 312:1 316:1 317:1 345:1 347:1 354:1 363:1 372:1 373:1 384:1 411:1 417:1 426:1 437:1 446:1 448:1 452:1 453:1 454:1 464:1 478:1 491:1 493:1 495:1 
-1.001968589183597 1.002374097883623 1.002496915293909 1.001568333534092 83:1 125:1 126:1 135:1 151:1 152:1 166:1 168:1 205:1 218:1 244:1 249:1 317:1 345:1 347:1 378:1 411:1 437:1 446:1 453:1 454:1 459:1 493:1 495:1 
-1.002480062939308 1.00216370793477 1.002933530425655 1.001870321702496 58:1 70:1 81:1 104:1 108:1 117:1 135:1 141:1 143:1 144:1 151:1 158:1 159:1 162:1 166:1 167:1 178:1 189:1 191:1 199:1 200:1 287:1 294:1 317:1 319:1 340:1 345:1 347:1 354:1 363:1 372:1 388:1 405:1 406:1 407:1 411:1 417:1 422:1 424:1 426:1 437:1 440:1 446:1 448:1 452:1 453:1 454:1 455:1 464:1 478:1 484:1 491:1 494:1 495:1 
-1.002701753547182 1.002651266084557 1.002028749258333 1.001737042964475 83:1 104:1 108:1 117:1 122:1 124:1 127:1 130:1 131:1 132:1 135:1 144:1 156:1 167:1 170:1 205:1 235:1 289:1 292:1 294:1 299:1 301:1 312:1 317:1 340:1 350:1 371:1 383:1 384:1 389:1 437:1 446:1 453:1 454:1 464:1 
-1.002771670750507 1.002553366597158 1.00211859750778 1.001802030894895 83:1 104:1 108:1 117:1 127:1 130:1 144:1 160:1 166:1 167:1 188:1 191:1 246:1 282:1 301:1 307:1 312:1 317:1 340:1 345:1 347:1 354:1 355:1 372:1 411:1 417:1 426:1 433:1 437:1 440:1 446:1 448:1 452:1 453:1 464:1 478:1 491:1 
-1.002671715678286 1.002447680419907 1.002514564799773 1.00187952031772 53:1 92:1 104:1 132:1 138:1 143:1 155:1 165:1 166:1 175:1 189:1 191:1 270:1 295:1 296:1 338:1 344:1 369:1 378:1 388:1 411:1 422:1 424:1 426:1 440:1 448:1 452:1 454:1 456:1 471:1 494:1 
-1.001947176776909 1.002506043822752 1.002637201261717 1.001570115668511 32:1 104:1 108:1 117:1 122:1 130:1 161:1 167:1 188:1 191:1 200:1 299:1 301:1 304:1 307:1 323:1 340:1 344:1 352:1 362:1 369:1 384:1 389:1 411:1 424:1 437:1 440:1 454:1 464:1 480:1 492:1 
-1.001604200906763 1.002671822685941 1.002662251707843 1.001215156009762 87:1 104:1 108:1 117:1 127:1 130:1 167:1 172:1 188:1 192:1 199:1 205:1 299:1 301:1 340:1 342:1 354:1 355:1 378:1 406:1 411:1 437:1 464:1 497:1 
-1.002882277964434 1.002823538958043 1.002794188736704 1.002011311863067 1:1 7:1 19:1 71:1 73:1 83:1 92:1 126:1 131:1 141:1 143:1 144:1 151:1 152:1 155:1 157:1 160:1 162:1 165:1 186:1 191:1 235:1 246:1 282:1 292:1 301:1 309:1 310:1 312:1 317:1 322:1 344:1 345:1 347:1 355:1 372:1 373:1 376:1 383:1 384:1 389:1 391:1 406:1 411:1 424:1 426:1 433:1 437:1 446:1 452:1 454:1 464:1 478:1 491:1 493:1 494:1 497:1 
-0.996987866596209 0.9969358761297058 0.9968687702947506 0.9967360054850378 81:1 83:1 108:1 121:1 122:1 124:1 125:1 126:1 131:1 132:1 135:1 138:1 141:1 143:1 144:1 146:1 147:1 149:1 151:1 152:1 155:1 156:1 157:1 158:1 159:1 160:1 162:1 165:1 166:1 168:1 169:1 170:1 174:1 175:1 176:1 178:1 181:1 190:1 191:1 193:1 196:1 198:1 199:1 205:1 235:1 237:1 244:1 249:1 282:1 287:1 292:1 294:1 312:1 316:1 317:1 345:1 347:1 363:1 371:1 372:1 373:1 376:1 378:1 384:1 388:1 391:1 397:1 411:1 417:1 430:1 437:1 443:1 444:1 446:1 452:1 453:1 454:1 455:1 459:1 464:1 477:1 478:1 490:1 491:1 493:1 495:1 
-1.002927143341436 1.00226516754868 1.002167999069759 1.001928033216922 64:1 104:1 108:1 117:1 122:1 124:1 125:1 126:1 127:1 130:1 131:1 132:1 135:1 138:1 142:1 143:1 144:1 146:1 149:1 155:1 157:1 165:1 166:1 167:1 168:1 169:1 170:1 172:1 175:1 181:1 185:1 188:1 189:1 192:1 200:1 205:1 235:1 237:1 249:1 282:1 292:1 294:1 299:1 301:1 307:1 317:1 338:1 345:1 347:1 355:1 363:1 371:1 378:1 383:1 384:1 388:1 391:1 406:1 411:1 417:1 424:1 437:1 446:1 452:1 453:1 454:1 455:1 459:1 464:1 471:1 478:1 491:1 492:1 495:1 
-1.002750887957714 1.001986468031172 1.00224827721122 1.002450378922459 104:1 108:1 117:1 127:1 135:1 143:1 159:1 166:1 167:1 172:1 185:1 188:1 191:1 270:1 287:1 289:1 294:1 299:1 301:1 317:1 338:1 345:1 354:1 406:1 411:1 417:1 424:1 437:1 448:1 452:1 453:1 454:1 455:1 456:1 492:1 495:1 
-1.00294399253252 1.002292226864151 1.002340935224374 1.001922933357003 104:1 108:1 117:1 122:1 124:1 125:1 126:1 127:1 130:1 131:1 132:1 135:1 143:1 144:1 149:1 155:1 156:1 157:1 158:1 166:1 167:1 168:1 169:1 170:1 172:1 175:1 178:1 188:1 192:1 198:1 199:1 205:1 211:1 234:1 235:1 237:1 244:1 252:1 262:1 287:1 292:1 294:1 301:1 317:1 345:1 347:1 354:1 363:1 380:1 384:1 388:1 406:1 411:1 417:1 424:1 426:1 437:1 446:1 452:1 453:1 454:1 455:1 456:1 464:1 491:1 495:1 
-1.002975046415201 1.002661696242191 1.002975691075931 1.001828807558441 66:1 104:1 108:1 117:1 122:1 124:1 125:1 126:1 127:1 130:1 131:1 135:1 138:1 142:1 143:1 144:1 147:1 157:1 167:1 176:1 190:1 205:1 234:1 235:1 287:1 289:1 292:1 299:1 301:1 317:1 345:1 354:1 355:1 371:1 376:1 383:1 384:1 411:1 424:1 437:1 446:1 453:1 454:1 460:1 464:1 471:1 478:1 492:1 
-1.00286921397803 1.002709505760406 1.002464653413987 1.001614510996809 104:1 117:1 127:1 130:1 149:1 150:1 152:1 155:1 169:1 175:1 176:1 188:1 205:1 235:1 275:1 287:1 294:1 307:1 354:1 355:1 391:1 426:1 437:1 446:1 453:1 454:1 
-1.002467574061184 1.002056363217314 1.002862618072788 1.001896526649975 16:1 126:1 131:1 144:1 151:1 158:1 159:1 160:1 170:1 175:1 181:1 189:1 191:1 193:1 287:1 294:1 299:1 301:1 307:1 309:1 312:1 317:1 322:1 323:1 333:1 338:1 345:1 347:1 354:1 372:1 384:1 411:1 424:1 437:1 446:1 448:1 452:1 453:1 454:1 464:1 466:1 491:1 492:1 493:1 494:1 495:1 
-1.002448296311611 1.002576262773056 1.002979060827899 1.001854848309218 81:1 83:1 104:1 108:1 117:1 124:1 125:1 127:1 130:1 131:1 132:1 135:1 149:1 152:1 156:1 162:1 165:1 166:1 167:1 168:1 169:1 172:1 178:1 192:1 205:1 216:1 235:1 237:1 249:1 269:1 291:1 292:1 294:1 299:1 301:1 317:1 345:1 347:1 371:1 383:1 384:1 397:1 406:1 411:1 433:1 437:1 446:1 453:1 454:1 455:1 464:1 491:1 
-1.002524200370075 1.002911540915264 1.002486960501333 1.002757138127512 53:1 81:1 92:1 121:1 122:1 132:1 138:1 142:1 143:1 144:1 146:1 150:1 155:1 158:1 160:1 166:1 170:1 172:1 178:1 189:1 190:1 191:1 199:1 212:1 235:1 249:1 262:1 282:1 287:1 289:1 292:1 294:1 301:1 307:1 312:1 316:1 317:1 337:1 338:1 345:1 347:1 354:1 355:1 372:1 378:1 388:1 391:1 403:1 406:1 411:1 422:1 424:1 426:1 433:1 437:1 440:1 446:1 452:1 453:1 454:1 459:1 464:1 477:1 478:1 491:1 492:1 493:1 494:1 495:1 497:1 
-1.003052970145891 1.002784460975884 1.002485411626718 1.002339746394128 92:1 108:1 117:1 122:1 127:1 130:1 132:1 135:1 141:1 143:1 144:1 151:1 152:1 155:1 158:1 166:1 167:1 170:1 172:1 185:1 188:1 189:1 193:1 203:1 205:1 246:1 287:1 294:1 301:1 303:1 307:1 309:1 310:1 317:1 319:1 323:1 344:1 345:1 354:1 363:1 372:1 378:1 381:1 388:1 406:1 411:1 417:1 426:1 437:1 440:1 446:1 448:1 452:1 453:1 454:1 464:1 478:1 482:1 491:1 492:1 493:1 494:1 
-1.003142903560178 1.002747148403986 1.002565843059116 1.002173172397326 1:1 5:1 30:1 42:1 81:1 104:1 108:1 117:1 121:1 125:1 126:1 127:1 130:1 135:1 144:1 152:1 155:1 157:1 158:1 160:1 166:1 169:1 170:1 173:1 181:1 188:1 189:1 191:1 196:1 198:1 200:1 205:1 282:1 287:1 292:1 294:1 301:1 305:1 306:1 307:1 316:1 317:1 338:1 340:1 345:1 347:1 368:1 371:1 372:1 376:1 378:1 382:1 383:1 384:1 391:1 406:1 411:1 417:1 424:1 426:1 437:1 440:1 446:1 452:1 453:1 454:1 455:1 464:1 478:1 491:1 493:1 495:1 
-1.00267585794351 1.00225488882066 1.002241870067524 1.001905410130908 40:1 117:1 126:1 127:1 130:1 132:1 135:1 138:1 155:1 157:1 166:1 188:1 189:1 193:1 205:1 235:1 249:1 260:1 287:1 289:1 340:1 354:1 355:1 372:1 378:1 384:1 406:1 411:1 417:1 422:1 424:1 426:1 437:1 446:1 448:1 452:1 454:1 455:1 456:1 459:1 464:1 471:1 491:1 
-1.003163604325416 1.00252791708622 1.002484313208276 1.002150963466179 53:1 59:1 87:1 92:1 104:1 108:1 119:1 122:1 126:1 127:1 132:1 138:1 156:1 167:1 189:1 192:1 205:1 262:1 264:1 338:1 341:1 354:1 355:1 359:1 378:1 388:1 403:1 406:1 412:1 417:1 424:1 426:1 437:1 440:1 443:1 452:1 454:1 459:1 464:1 471:1 484:1 485:1 492:1 
-1.002874300972196 1.002352394723261 1.002371993345094 1.001956323085171 38:1 92:1 104:1 108:1 117:1 121:1 122:1 131:1 132:1 135:1 143:1 144:1 146:1 151:1 155:1 160:1 166:1 167:1 170:1 175:1 178:1 185:1 190:1 191:1 193:1 211:1 235:1 282:1 287:1 289:1 292:1 294:1 301:1 312:1 317:1 319:1 338:1 341:1 345:1 347:1 354:1 363:1 371:1 372:1 384:1 391:1 411:1 417:1 422:1 424:1 426:1 433:1 437:1 446:1 448:1 452:1 453:1 454:1 464:1 478:1 491:1 493:1 495:1 
-1.002792944852393 1.00220813064674 1.002767194968432 1.001900755402753 32:1 83:1 92:1 104:1 108:1 117:1 122:1 125:1 126:1 127:1 130:1 131:1 135:1 142:1 143:1 144:1 155:1 159:1 165:1 166:1 167:1 185:1 200:1 205:1 234:1 235:1 292:1 301:1 307:1 317:1 338:1 341:1 345:1 354:1 355:1 363:1 371:1 381:1 383:1 384:1 388:1 403:1 406:1 411:1 417:1 424:1 426:1 437:1 440:1 443:1 446:1 452:1 453:1 454:1 455:1 456:1 464:1 471:1 480:1 492:1 
-1.002931855356504 1.002351238494887 1.002937593369699 1.001796725381204 73:1 92:1 127:1 130:1 135:1 143:1 155:1 169:1 200:1 234:1 270:1 292:1 299:1 307:1 316:1 317:1 354:1 355:1 366:1 378:1 391:1 406:1 411:1 417:1 422:1 424:1 437:1 440:1 454:1 464:1 471:1 
-1.002561024680349 1.002533386860024 1.002379543406164 1.002164074942896 104:1 108:1 117:1 122:1 124:1 125:1 126:1 127:1 130:1 131:1 132:1 135:1 143:1 144:1 147:1 151:1 152:1 155:1 160:1 166:1 167:1 168:1 175:1 186:1 193:1 198:1 199:1 200:1 205:1 212:1 235:1 269:1 292:1 294:1 300:1 301:1 307:1 312:1 316:1 317:1 345:1 347:1 355:1 371:1 373:1 378:1 383:1 388:1 391:1 406:1 411:1 417:1 426:1 437:1 446:1 448:1 452:1 453:1 454:1 464:1 466:1 471:1 478:1 490:1 491:1 
-1.002683625313692 1.002242474767433 1.00216315826354 1.001888708658431 92:1 104:1 108:1 117:1 125:1 127:1 130:1 131:1 135:1 142:1 143:1 150:1 161:1 167:1 188:1 189:1 200:1 205:1 235:1 246:1 260:1 273:1 299:1 300:1 301:1 317:1 382:1 388:1 406:1 424:1 435:1 437:1 440:1 446:1 454:1 455:1 466:1 471:1 476:1 492:1 
-0.9854328290335961 0.9834186917719555 0.9842535448132423 0.9838172750807033 81:1 121:1 124:1 125:1 126:1 131:1 135:1 138:1 144:1 146:1 147:1 149:1 151:1 152:1 155:1 156:1 157:1 158:1 159:1 160:1 162:1 165:1 168:1 169:1 170:1 174:1 175:1 176:1 178:1 181:1 186:1 191:1 193:1 205:1 235:1 237:1 249:1 282:1 292:1 294:1 316:1 317:1 345:1 347:1 363:1 371:1 372:1 378:1 384:1 391:1 411:1 417:1 437:1 445:1 446:1 452:1 453:1 454:1 459:1 464:1 478:1 491:1 493:1 495:1 
-0.9178949880785034 0.9168812543980244 0.9176599823521815 0.9172698120694657 83:1 121:1 124:1 125:1 126:1 131:1 138:1 144:1 146:1 147:1 149:1 151:1 152:1 155:1 157:1 158:1 159:1 160:1 165:1 168:1 169:1 170:1 174:1 175:1 176:1 178:1 181:1 190:1 191:1 193:1 196:1 198:1 199:1 202:1 205:1 211:1 218:1 235:1 237:1 244:1 249:1 250:1 282:1 291:1 292:1 294:1 316:1 317:1 338:1 345:1 347:1 363:1 372:1 378:1 384:1 388:1 391:1 397:1 411:1 417:1 437:1 446:1 452:1 453:1 454:1 455:1 459:1 464:1 478:1 490:1 491:1 493:1 495:1 
-0.9932123739001893 0.9924337898617197 0.9921269791378673 0.9926165336320772 121:1 124:1 125:1 126:1 131:1 132:1 138:1 143:1 144:1 146:1 147:1 149:1 151:1 152:1 155:1 156:1 157:1 158:1 159:1 160:1 162:1 166:1 168:1 169:1 170:1 174:1 175:1 176:1 178:1 181:1 189:1 190:1 193:1 196:1 198:1 199:1 202:1 205:1 211:1 218:1 227:1 235:1 237:1 249:1 282:1 287:1 292:1 294:1 316:1 317:1 345:1 347:1 363:1 372:1 378:1 384:1 388:1 391:1 411:1 414:1 417:1 425:1 426:1 437:1 446:1 452:1 453:1 454:1 455:1 459:1 464:1 478:1 491:1 493:1 494:1 495:1 
-1.001926180663808 1.001751331515747 1.002676297003725 1.001549091741868 13:1 38:1 70:1 92:1 104:1 108:1 117:1 122:1 127:1 130:1 135:1 167:1 185:1 188:1 246:1 269:1 270:1 299:1 301:1 304:1 307:1 336:1 340:1 354:1 355:1 369:1 378:1 424:1 430:1 437:1 440:1 454:1 471:1 
-1.002696414010188 1.002745660019723 1.002851235806109 1.001736974361217 24:1 122:1 125:1 132:1 138:1 143:1 157:1 178:1 188:1 189:1 199:1 249:1 292:1 340:1 354:1 355:1 381:1 388:1 422:1 424:1 426:1 440:1 446:1 453:1 454:1 459:1 482:1 
-1.002885061909797 1.002832065778455 1.002529185557793 1.002569852856175 81:1 92:1 126:1 132:1 135:1 138:1 142:1 143:1 146:1 155:1 165:1 166:1 169:1 182:1 189:1 190:1 198:1 199:1 200:1 205:1 235:1 262:1 287:1 292:1 294:1 301:1 317:1 338:1 347:1 372:1 376:1 378:1 388:1 391:1 411:1 414:1 417:1 421:1 422:1 424:1 426:1 437:1 440:1 443:1 446:1 448:1 452:1 453:1 454:1 455:1 456:1 459:1 464:1 471:1 478:1 482:1 491:1 493:1 
-1.002975101659655 1.002831022614294 1.002907210518878 1.001943086261455 5:1 16:1 25:1 104:1 122:1 132:1 144:1 146:1 160:1 161:1 166:1 175:1 178:1 186:1 189:1 199:1 205:1 235:1 246:1 269:1 270:1 287:1 294:1 298:1 301:1 304:1 307:1 309:1 310:1 316:1 317:1 323:1 326:1 335:1 336:1 338:1 345:1 347:1 352:1 354:1 355:1 360:1 363:1 371:1 382:1 384:1 389:1 417:1 426:1 437:1 446:1 448:1 452:1 453:1 454:1 464:1 480:1 491:1 493:1 
-1.003078903289855 1.002482649771441 1.002377192578033 1.002132773149528 83:1 104:1 108:1 117:1 121:1 124:1 125:1 126:1 127:1 130:1 131:1 135:1 138:1 144:1 147:1 149:1 151:1 152:1 155:1 156:1 157:1 159:1 160:1 162:1 165:1 166:1 167:1 168:1 169:1 170:1 172:1 175:1 176:1 178:1 182:1 189:1 191:1 196:1 198:1 200:1 205:1 218:1 234:1 235:1 237:1 244:1 249:1 262:1 292:1 294:1 299:1 300:1 301:1 316:1 317:1 333:1 345:1 347:1 354:1 355:1 359:1 363:1 371:1 378:1 384:1 388:1 397:1 406:1 411:1 417:1 424:1 426:1 437:1 440:1 443:1 446:1 452:1 453:1 454:1 455:1 456:1 459:1 464:1 476:1 477:1 478:1 491:1 495:1 496:1 
-8 8 8 1.002069455181211 19:1 49:1 58:1 132:1 138:1 143:1 144:1 146:1 147:1 159:1 162:1 170:1 178:1 189:1 193:1 200:1 235:1 262:1 284:1 287:1 294:1 296:1 299:1 317:1 345:1 347:1 363:1 372:1 384:1 403:1 411:1 415:1 417:1 424:1 426:1 433:1 437:1 446:1 448:1 452:1 454:1 459:1 464:1 471:1 490:1 491:1 492:1 493:1 494:1 495:1 
-1.00282641478109 1.002839094198635 1.00263047164354 1.001993191873552 59:1 83:1 97:1 104:1 108:1 117:1 119:1 124:1 125:1 127:1 130:1 131:1 132:1 135:1 140:1 152:1 155:1 158:1 159:1 162:1 165:1 170:1 172:1 175:1 181:1 183:1 189:1 192:1 202:1 205:1 212:1 235:1 244:1 245:1 262:1 292:1 294:1 299:1 301:1 312:1 317:1 333:1 345:1 347:1 354:1 378:1 384:1 388:1 401:1 405:1 411:1 417:1 424:1 426:1 437:1 446:1 452:1 453:1 454:1 459:1 464:1 471:1 484:1 491:1 493:1 494:1 495:1 
-1.002735498512045 1.00539456693585 1.005020505928213 1.001500300847851 38:1 90:1 97:1 104:1 152:1 157:1 159:1 160:1 190:1 196:1 260:1 273:1 279:1 372:1 411:1 452:1 454:1 464:1 493:1 
-1.000738473553529 1.004946279738221 1.004950933958206 1.000466281435521 104:1 108:1 117:1 127:1 167:1 175:1 188:1 199:1 291:1 307:1 340:1 369:1 372:1 381:1 424:1 448:1 454:1 492:1 
-1.002186872637738 1.001972608144099 1.002861797739643 1.002357170540302 81:1 83:1 108:1 124:1 125:1 126:1 127:1 131:1 132:1 135:1 138:1 144:1 146:1 147:1 149:1 152:1 155:1 156:1 157:1 158:1 159:1 162:1 165:1 166:1 167:1 168:1 169:1 170:1 172:1 174:1 175:1 176:1 178:1 188:1 191:1 192:1 196:1 198:1 199:1 200:1 205:1 218:1 234:1 235:1 237:1 249:1 269:1 282:1 287:1 291:1 292:1 294:1 299:1 300:1 301:1 304:1 312:1 316:1 317:1 345:1 347:1 363:1 364:1 371:1 372:1 378:1 383:1 384:1 388:1 391:1 397:1 401:1 406:1 411:1 417:1 433:1 437:1 446:1 452:1 453:1 454:1 459:1 464:1 478:1 491:1 493:1 495:1 
-1.002905909605702 1.002510939638042 1.002695889979517 1.002227985565435 83:1 108:1 121:1 124:1 125:1 126:1 127:1 130:1 131:1 135:1 138:1 144:1 146:1 147:1 149:1 152:1 155:1 156:1 157:1 159:1 160:1 162:1 165:1 166:1 167:1 168:1 169:1 170:1 172:1 174:1 175:1 176:1 181:1 186:1 189:1 196:1 198:1 199:1 202:1 205:1 218:1 235:1 237:1 249:1 252:1 287:1 292:1 294:1 299:1 301:1 316:1 317:1 338:1 345:1 347:1 350:1 363:1 371:1 372:1 378:1 383:1 384:1 391:1 397:1 411:1 417:1 433:1 437:1 446:1 448:1 452:1 453:1 454:1 459:1 464:1 491:1 493:1 495:1 
-0.931933902640756 0.9301453415105779 0.930510649926186 0.9304025862822272 121:1 124:1 125:1 126:1 131:1 138:1 144:1 146:1 147:1 149:1 151:1 152:1 155:1 156:1 157:1 158:1 159:1 160:1 162:1 165:1 168:1 169:1 170:1 174:1 175:1 176:1 178:1 181:1 190:1 191:1 193:1 196:1 198:1 199:1 205:1 211:1 235:1 237:1 244:1 249:1 262:1 282:1 287:1 291:1 292:1 294:1 300:1 316:1 317:1 338:1 345:1 347:1 372:1 376:1 378:1 384:1 388:1 391:1 411:1 417:1 437:1 443:1 446:1 452:1 453:1 454:1 455:1 459:1 464:1 478:1 490:1 491:1 493:1 495:1 
-0.946448649653032 0.9450647509766803 0.9452576515583774 0.944946606459779 121:1 124:1 125:1 126:1 131:1 138:1 141:1 144:1 146:1 147:1 149:1 151:1 152:1 155:1 156:1 157:1 158:1 159:1 160:1 162:1 165:1 168:1 169:1 170:1 174:1 175:1 176:1 178:1 181:1 190:1 193:1 196:1 198:1 199:1 205:1 235:1 237:1 249:1 282:1 292:1 294:1 316:1 317:1 338:1 345:1 347:1 363:1 372:1 376:1 378:1 388:1 391:1 411:1 417:1 437:1 446:1 448:1 452:1 453:1 454:1 455:1 459:1 464:1 477:1 478:1 490:1 491:1 493:1 495:1 
-1.002605794543202 1.002051798798067 1.002945739308981 1.001880258948232 25:1 59:1 81:1 83:1 121:1 124:1 125:1 126:1 131:1 132:1 138:1 141:1 142:1 144:1 146:1 147:1 149:1 151:1 152:1 155:1 156:1 157:1 159:1 162:1 165:1 166:1 168:1 174:1 176:1 178:1 181:1 196:1 201:1 205:1 234:1 235:1 244:1 246:1 249:1 287:1 292:1 294:1 301:1 317:1 345:1 347:1 363:1 373:1 384:1 388:1 401:1 411:1 417:1 437:1 440:1 445:1 446:1 452:1 453:1 454:1 455:1 459:1 464:1 478:1 480:1 490:1 493:1 495:1 
-1.002855234399117 1.002501306739761 1.002940892286596 1.001819305483135 16:1 53:1 121:1 126:1 132:1 141:1 143:1 144:1 146:1 147:1 151:1 152:1 156:1 157:1 158:1 159:1 160:1 162:1 165:1 170:1 178:1 182:1 189:1 193:1 196:1 199:1 282:1 287:1 294:1 312:1 317:1 338:1 345:1 347:1 354:1 363:1 372:1 384:1 411:1 417:1 424:1 426:1 437:1 446:1 452:1 453:1 454:1 455:1 459:1 464:1 478:1 484:1 491:1 493:1 494:1 495:1 
-0.9334235188815169 0.927975148664411 0.9281122288095545 0.9283417005892206 81:1 121:1 124:1 125:1 126:1 131:1 132:1 138:1 144:1 146:1 147:1 149:1 151:1 152:1 155:1 156:1 157:1 158:1 159:1 160:1 162:1 165:1 168:1 169:1 170:1 174:1 175:1 176:1 178:1 181:1 190:1 191:1 193:1 196:1 198:1 205:1 218:1 235:1 237:1 244:1 249:1 282:1 287:1 291:1 292:1 294:1 316:1 317:1 338:1 345:1 347:1 363:1 378:1 384:1 391:1 411:1 417:1 437:1 446:1 452:1 453:1 454:1 455:1 459:1 464:1 477:1 478:1 490:1 491:1 493:1 495:1 
-1.002975569210364 1.00230444838053 1.002287673442532 1.001934441911839 125:1 126:1 132:1 138:1 143:1 144:1 151:1 155:1 156:1 157:1 159:1 162:1 165:1 168:1 169:1 174:1 193:1 205:1 235:1 237:1 249:1 250:1 262:1 287:1 291:1 292:1 317:1 345:1 347:1 354:1 372:1 378:1 411:1 417:1 426:1 433:1 437:1 443:1 446:1 452:1 453:1 454:1 464:1 478:1 490:1 494:1 
-1.002708135135632 1.002145777995429 1.002329620737594 1.001878366261822 15:1 38:1 83:1 119:1 126:1 144:1 147:1 151:1 155:1 158:1 159:1 160:1 166:1 168:1 170:1 175:1 181:1 189:1 190:1 191:1 193:1 199:1 237:1 249:1 282:1 287:1 294:1 301:1 312:1 317:1 319:1 338:1 345:1 347:1 354:1 355:1 372:1 384:1 388:1 403:1 411:1 417:1 424:1 426:1 433:1 437:1 446:1 448:1 452:1 453:1 454:1 455:1 459:1 464:1 466:1 478:1 484:1 491:1 494:1 495:1 
-1.002556499242872 1.002598320350638 1.002975554524214 1.001862235646872 53:1 108:1 126:1 131:1 132:1 135:1 143:1 144:1 146:1 147:1 151:1 158:1 160:1 162:1 166:1 167:1 169:1 172:1 178:1 185:1 188:1 189:1 190:1 193:1 199:1 200:1 249:1 270:1 282:1 287:1 294:1 317:1 338:1 345:1 347:1 354:1 363:1 372:1 388:1 406:1 407:1 411:1 417:1 422:1 424:1 426:1 437:1 438:1 440:1 446:1 448:1 452:1 453:1 454:1 455:1 459:1 464:1 477:1 478:1 491:1 493:1 494:1 495:1 
-1.002852616162023 1.002373211181059 1.002199303552546 1.001952844887246 40:1 59:1 92:1 108:1 126:1 127:1 130:1 144:1 146:1 151:1 152:1 158:1 166:1 167:1 170:1 172:1 189:1 190:1 191:1 193:1 199:1 205:1 211:1 264:1 270:1 287:1 289:1 292:1 294:1 312:1 316:1 317:1 338:1 345:1 347:1 354:1 370:1 372:1 388:1 411:1 417:1 422:1 424:1 426:1 433:1 437:1 438:1 446:1 448:1 452:1 453:1 454:1 464:1 477:1 478:1 484:1 491:1 493:1 494:1 495:1 
-0.997596535731504 0.9973254780679381 0.9973150093600839 0.9970226571651751 81:1 121:1 125:1 126:1 131:1 138:1 146:1 147:1 149:1 151:1 152:1 157:1 159:1 160:1 168:1 169:1 170:1 174:1 175:1 176:1 178:1 181:1 190:1 196:1 198:1 205:1 235:1 237:1 249:1 252:1 275:1 282:1 287:1 292:1 294:1 316:1 317:1 345:1 347:1 363:1 372:1 376:1 378:1 384:1 391:1 411:1 417:1 426:1 437:1 446:1 452:1 453:1 454:1 464:1 477:1 478:1 490:1 491:1 493:1 495:1 
-1.002827134687529 1.002820594397368 1.002583212145109 1.002015622509943 2:1 13:1 59:1 66:1 83:1 92:1 108:1 122:1 124:1 127:1 130:1 135:1 138:1 142:1 152:1 159:1 162:1 165:1 166:1 167:1 169:1 170:1 178:1 188:1 193:1 199:1 205:1 235:1 249:1 264:1 273:1 291:1 292:1 294:1 312:1 317:1 338:1 345:1 355:1 363:1 369:1 371:1 388:1 403:1 406:1 411:1 417:1 424:1 437:1 440:1 446:1 448:1 452:1 453:1 454:1 459:1 464:1 471:1 476:1 478:1 480:1 490:1 491:1 495:1 
-1.002487178803569 1.002082515218947 1.002760278329977 1.00193501832335 40:1 104:1 121:1 124:1 126:1 131:1 132:1 138:1 141:1 144:1 146:1 147:1 150:1 151:1 155:1 156:1 157:1 158:1 159:1 162:1 166:1 168:1 170:1 175:1 178:1 186:1 189:1 190:1 191:1 199:1 226:1 235:1 249:1 270:1 282:1 287:1 294:1 307:1 317:1 345:1 347:1 348:1 363:1 372:1 388:1 391:1 411:1 417:1 424:1 426:1 437:1 440:1 446:1 448:1 452:1 453:1 454:1 455:1 459:1 464:1 466:1 477:1 478:1 484:1 491:1 492:1 493:1 494:1 495:1 
-1.002600652933474 1.002264252527396 1.002333696810673 1.001918563208299 104:1 108:1 117:1 124:1 125:1 126:1 127:1 130:1 131:1 132:1 135:1 144:1 147:1 149:1 152:1 166:1 167:1 168:1 169:1 172:1 175:1 178:1 188:1 192:1 200:1 202:1 205:1 217:1 218:1 224:1 235:1 237:1 249:1 292:1 294:1 301:1 304:1 317:1 338:1 342:1 345:1 350:1 363:1 371:1 378:1 383:1 384:1 385:1 388:1 397:1 406:1 411:1 437:1 446:1 452:1 453:1 454:1 464:1 493:1 495:1 
-1.003151566863424 1.002557151955959 1.002449454036739 1.002086493671401 73:1 82:1 92:1 117:1 125:1 126:1 132:1 142:1 155:1 176:1 189:1 301:1 307:1 309:1 312:1 316:1 317:1 323:1 324:1 333:1 340:1 345:1 347:1 352:1 354:1 355:1 365:1 372:1 381:1 382:1 383:1 394:1 397:1 411:1 426:1 437:1 446:1 448:1 452:1 453:1 454:1 464:1 480:1 491:1 492:1 
-1.002887060371303 1.002097243033849 1.002800122593249 1.001918043198205 1:1 30:1 38:1 40:1 42:1 59:1 92:1 104:1 108:1 117:1 122:1 127:1 130:1 141:1 155:1 158:1 160:1 173:1 175:1 181:1 191:1 200:1 217:1 235:1 243:1 282:1 295:1 301:1 305:1 306:1 307:1 312:1 319:1 338:1 345:1 354:1 356:1 360:1 372:1 373:1 388:1 406:1 411:1 417:1 424:1 426:1 437:1 440:1 446:1 452:1 453:1 454:1 455:1 459:1 464:1 466:1 471:1 478:1 482:1 484:1 485:1 491:1 492:1 493:1 494:1 
-1.002441866702002 1.002653462964258 1.002767187630647 1.002623935633497 15:1 32:1 40:1 121:1 125:1 126:1 132:1 143:1 144:1 146:1 155:1 157:1 159:1 160:1 168:1 169:1 174:1 175:1 181:1 189:1 190:1 191:1 193:1 264:1 270:1 279:1 287:1 289:1 294:1 300:1 301:1 304:1 309:1 310:1 317:1 323:1 333:1 338:1 342:1 345:1 347:1 372:1 382:1 383:1 384:1 391:1 397:1 411:1 417:1 426:1 437:1 443:1 446:1 448:1 452:1 453:1 454:1 455:1 464:1 478:1 480:1 491:1 
-1.002636483893907 1.002269495350295 1.002275687140466 1.00189424836685 18:1 38:1 92:1 104:1 108:1 117:1 130:1 135:1 143:1 166:1 169:1 170:1 185:1 188:1 199:1 200:1 205:1 211:1 246:1 254:1 270:1 289:1 299:1 301:1 307:1 316:1 317:1 340:1 344:1 350:1 354:1 355:1 366:1 373:1 378:1 380:1 383:1 384:1 411:1 417:1 426:1 437:1 454:1 459:1 464:1 471:1 497:1 
-0.9861233373265753 0.9859620937320881 0.9861705155376511 0.9860316762016152 104:1 121:1 124:1 125:1 126:1 131:1 132:1 135:1 138:1 144:1 146:1 147:1 149:1 151:1 152:1 155:1 156:1 157:1 158:1 159:1 160:1 162:1 165:1 168:1 169:1 170:1 174:1 175:1 176:1 178:1 181:1 190:1 191:1 193:1 196:1 198:1 199:1 202:1 205:1 218:1 235:1 237:1 249:1 282:1 287:1 292:1 294:1 301:1 317:1 345:1 347:1 363:1 364:1 371:1 378:1 384:1 391:1 411:1 417:1 435:1 437:1 446:1 452:1 453:1 454:1 455:1 459:1 464:1 477:1 478:1 490:1 492:1 493:1 495:1 
-0.9024829217254923 0.9015187196129909 0.9020245897404003 0.9015479888535902 121:1 124:1 125:1 126:1 131:1 138:1 144:1 146:1 147:1 149:1 151:1 152:1 155:1 156:1 157:1 158:1 159:1 160:1 165:1 168:1 169:1 170:1 174:1 175:1 176:1 178:1 181:1 190:1 191:1 193:1 196:1 198:1 202:1 205:1 211:1 218:1 235:1 237:1 244:1 249:1 269:1 282:1 292:1 294:1 316:1 317:1 338:1 345:1 347:1 363:1 371:1 372:1 376:1 378:1 384:1 388:1 391:1 411:1 417:1 437:1 446:1 452:1 453:1 454:1 455:1 459:1 464:1 478:1 490:1 491:1 492:1 493:1 495:1 
-1.002627239600744 1.00213923872334 1.002158002228251 1.00189269057395 104:1 108:1 117:1 121:1 122:1 124:1 125:1 126:1 127:1 130:1 131:1 132:1 135:1 138:1 143:1 144:1 147:1 149:1 151:1 155:1 156:1 157:1 159:1 160:1 166:1 167:1 169:1 170:1 172:1 174:1 175:1 176:1 178:1 191:1 192:1 196:1 198:1 199:1 205:1 211:1 216:1 235:1 237:1 249:1 269:1 292:1 294:1 299:1 301:1 304:1 307:1 317:1 345:1 347:1 348:1 355:1 371:1 372:1 378:1 383:1 384:1 388:1 391:1 411:1 417:1 422:1 424:1 426:1 437:1 446:1 452:1 453:1 454:1 455:1 459:1 464:1 478:1 480:1 491:1 493:1 495:1 
-1.002774808833177 1.00264062117786 1.002413471692258 1.001871500723007 92:1 124:1 125:1 138:1 141:1 144:1 155:1 166:1 218:1 235:1 237:1 246:1 269:1 282:1 292:1 299:1 300:1 301:1 304:1 307:1 340:1 381:1 382:1 384:1 424:1 440:1 445:1 446:1 452:1 454:1 480:1 491:1 492:1 
-1.002568513529846 1.002244704888017 1.002166466668856 1.00189558829407 108:1 127:1 130:1 135:1 144:1 146:1 151:1 156:1 158:1 162:1 166:1 172:1 182:1 191:1 200:1 202:1 216:1 235:1 249:1 287:1 294:1 301:1 317:1 338:1 345:1 354:1 388:1 400:1 411:1 417:1 424:1 426:1 433:1 437:1 446:1 452:1 453:1 455:1 464:1 491:1 494:1 
-1.002355758075514 1.002567760315083 1.002857686548646 1.001839626239589 66:1 104:1 108:1 117:1 122:1 124:1 125:1 127:1 130:1 135:1 143:1 155:1 165:1 167:1 172:1 185:1 188:1 192:1 205:1 235:1 264:1 292:1 298:1 299:1 301:1 317:1 338:1 345:1 354:1 403:1 406:1 411:1 417:1 422:1 424:1 426:1 437:1 440:1 446:1 452:1 453:1 454:1 464:1 471:1 476:1 482:1 
-1.002635776428827 1.002654104295434 1.002562467174699 1.002506588955833 83:1 92:1 108:1 117:1 121:1 122:1 124:1 125:1 126:1 127:1 130:1 131:1 135:1 142:1 144:1 146:1 149:1 150:1 151:1 152:1 155:1 156:1 157:1 159:1 160:1 162:1 166:1 167:1 169:1 178:1 185:1 188:1 192:1 199:1 202:1 205:1 211:1 212:1 227:1 235:1 237:1 249:1 262:1 275:1 282:1 287:1 292:1 294:1 317:1 338:1 345:1 347:1 354:1 355:1 371:1 378:1 388:1 411:1 417:1 426:1 437:1 443:1 446:1 448:1 452:1 453:1 454:1 455:1 459:1 464:1 476:1 478:1 479:1 485:1 490:1 491:1 492:1 495:1 
-1.003205014571763 1.002652787347129 1.002422169895588 1.00218929078245 83:1 104:1 108:1 117:1 122:1 126:1 127:1 130:1 132:1 135:1 138:1 142:1 143:1 144:1 146:1 147:1 155:1 158:1 159:1 166:1 167:1 169:1 170:1 172:1 175:1 185:1 188:1 191:1 192:1 196:1 198:1 200:1 205:1 218:1 227:1 235:1 249:1 269:1 282:1 284:1 294:1 300:1 304:1 312:1 317:1 342:1 345:1 347:1 354:1 363:1 371:1 378:1 384:1 388:1 406:1 411:1 417:1 424:1 426:1 437:1 444:1 446:1 452:1 453:1 454:1 455:1 459:1 464:1 471:1 478:1 484:1 491:1 493:1 495:1 497:1 
-1.00285012173229 1.00234158697174 1.002744462451848 1.001911660180607 92:1 126:1 132:1 138:1 143:1 144:1 146:1 155:1 157:1 160:1 166:1 175:1 205:1 287:1 294:1 299:1 301:1 306:1 317:1 323:1 328:1 345:1 347:1 354:1 372:1 380:1 382:1 384:1 391:1 411:1 424:1 426:1 437:1 446:1 448:1 452:1 453:1 454:1 464:1 490:1 
-1.003209264153653 1.002104250981826 1.00298099924445 1.001919901323966 1:1 16:1 17:1 35:1 40:1 83:1 138:1 150:1 151:1 155:1 165:1 166:1 170:1 191:1 205:1 234:1 237:1 246:1 249:1 269:1 270:1 287:1 289:1 292:1 299:1 301:1 304:1 305:1 309:1 310:1 311:1 312:1 317:1 323:1 328:1 336:1 342:1 354:1 356:1 366:1 376:1 382:1 383:1 411:1 437:1 446:1 452:1 453:1 454:1 455:1 464:1 478:1 491:1 492:1 497:1 
-1.002779847712119 1.002260131672059 1.00233091341139 1.001868196675678 43:1 81:1 83:1 125:1 126:1 131:1 146:1 152:1 155:1 160:1 166:1 168:1 169:1 205:1 237:1 252:1 292:1 294:1 299:1 307:1 312:1 316:1 317:1 345:1 356:1 378:1 381:1 383:1 411:1 424:1 426:1 437:1 440:1 446:1 453:1 454:1 464:1 480:1 497:1 
-1.002430455226516 1.002719020620828 1.00247858854441 1.002171275095336 16:1 53:1 92:1 125:1 132:1 141:1 143:1 144:1 155:1 160:1 166:1 191:1 211:1 235:1 282:1 287:1 301:1 304:1 311:1 317:1 319:1 333:1 338:1 347:1 354:1 355:1 362:1 363:1 372:1 373:1 383:1 384:1 406:1 411:1 424:1 426:1 435:1 437:1 446:1 452:1 453:1 454:1 455:1 464:1 477:1 480:1 491:1 492:1 493:1 
-1.002862522479604 1.002282194222307 1.0021895188838 1.001932554184616 38:1 40:1 92:1 130:1 131:1 132:1 138:1 144:1 155:1 166:1 181:1 189:1 193:1 205:1 212:1 217:1 235:1 249:1 252:1 260:1 270:1 287:1 289:1 292:1 294:1 341:1 355:1 360:1 372:1 384:1 403:1 406:1 411:1 417:1 424:1 426:1 440:1 446:1 452:1 453:1 454:1 455:1 464:1 482:1 484:1 491:1 493:1 495:1 
-1.002994838721067 1.002842399423264 1.002765131321566 1.001912295372494 1:1 2:1 5:1 13:1 20:1 27:1 30:1 31:1 32:1 35:1 41:1 49:1 62:1 66:1 81:1 92:1 104:1 108:1 117:1 122:1 124:1 127:1 130:1 135:1 141:1 143:1 150:1 166:1 167:1 169:1 172:1 173:1 188:1 200:1 205:1 217:1 235:1 273:1 299:1 301:1 306:1 307:1 319:1 340:1 352:1 354:1 355:1 388:1 389:1 390:1 411:1 424:1 426:1 437:1 440:1 446:1 454:1 455:1 464:1 466:1 471:1 474:1 476:1 484:1 492:1 
-1.002627988570857 1.002662745934689 1.002962651434282 1.001920141775706 83:1 92:1 104:1 122:1 124:1 125:1 126:1 127:1 130:1 131:1 132:1 135:1 138:1 141:1 142:1 143:1 144:1 146:1 147:1 149:1 150:1 156:1 158:1 159:1 166:1 167:1 170:1 172:1 173:1 174:1 175:1 176:1 190:1 191:1 192:1 193:1 205:1 235:1 237:1 249:1 269:1 291:1 292:1 301:1 312:1 317:1 345:1 347:1 371:1 378:1 388:1 397:1 401:1 402:1 403:1 405:1 406:1 408:1 411:1 412:1 414:1 417:1 424:1 425:1 426:1 436:1 437:1 440:1 442:1 445:1 446:1 452:1 453:1 454:1 456:1 457:1 459:1 462:1 464:1 471:1 476:1 478:1 484:1 485:1 492:1 495:1 
-1.002819665094794 1.002830776899758 1.002699500589399 1.001960780871744 1:1 2:1 5:1 13:1 32:1 59:1 66:1 83:1 104:1 108:1 117:1 121:1 122:1 124:1 125:1 126:1 130:1 135:1 138:1 141:1 142:1 143:1 156:1 166:1 168:1 173:1 179:1 182:1 185:1 186:1 188:1 194:1 205:1 218:1 235:1 249:1 292:1 299:1 301:1 345:1 355:1 371:1 384:1 388:1 406:1 411:1 412:1 417:1 422:1 424:1 435:1 437:1 446:1 452:1 453:1 454:1 456:1 464:1 471:1 478:1 482:1 490:1 491:1 492:1 495:1 
-1.002318361739133 1.002754183131693 1.002942587164547 1.001919041913647 2:1 5:1 32:1 53:1 83:1 92:1 104:1 108:1 117:1 121:1 122:1 126:1 127:1 130:1 131:1 135:1 138:1 141:1 143:1 156:1 157:1 160:1 166:1 170:1 172:1 173:1 178:1 193:1 199:1 200:1 217:1 235:1 249:1 252:1 270:1 282:1 287:1 292:1 301:1 306:1 307:1 317:1 340:1 345:1 347:1 354:1 372:1 373:1 378:1 380:1 403:1 406:1 407:1 411:1 416:1 417:1 422:1 424:1 433:1 437:1 440:1 445:1 446:1 448:1 452:1 453:1 454:1 455:1 459:1 464:1 466:1 471:1 476:1 477:1 478:1 484:1 491:1 493:1 495:1 
-1.003112907718693 1.00235856387419 1.002263120950781 1.001951508666356 38:1 59:1 92:1 108:1 127:1 138:1 144:1 151:1 155:1 158:1 160:1 166:1 168:1 170:1 181:1 189:1 191:1 193:1 199:1 200:1 211:1 212:1 270:1 282:1 287:1 294:1 301:1 317:1 338:1 340:1 342:1 345:1 354:1 363:1 372:1 378:1 384:1 411:1 417:1 424:1 426:1 433:1 437:1 440:1 446:1 448:1 453:1 454:1 455:1 464:1 471:1 476:1 491:1 493:1 494:1 
-0.9932762103157539 0.9927647190598023 0.993445696773125 0.9924564114328035 83:1 108:1 121:1 124:1 125:1 126:1 127:1 130:1 131:1 132:1 138:1 144:1 146:1 147:1 149:1 150:1 151:1 152:1 155:1 156:1 157:1 158:1 159:1 160:1 161:1 162:1 165:1 168:1 169:1 170:1 174:1 175:1 176:1 178:1 181:1 190:1 196:1 198:1 199:1 205:1 235:1 237:1 244:1 249:1 282:1 291:1 292:1 294:1 316:1 317:1 338:1 345:1 347:1 371:1 378:1 384:1 388:1 391:1 406:1 411:1 417:1 437:1 443:1 446:1 452:1 453:1 454:1 459:1 464:1 478:1 490:1 493:1 495:1 
-0.9719163662440795 0.971846774222311 0.9719897299192323 0.9716911286648016 83:1 121:1 124:1 125:1 126:1 131:1 132:1 138:1 144:1 146:1 147:1 149:1 150:1 151:1 152:1 155:1 156:1 157:1 158:1 159:1 160:1 165:1 166:1 168:1 169:1 170:1 174:1 175:1 176:1 178:1 181:1 190:1 191:1 196:1 198:1 199:1 205:1 211:1 218:1 235:1 237:1 249:1 269:1 282:1 292:1 294:1 316:1 317:1 345:1 347:1 348:1 371:1 372:1 378:1 380:1 384:1 388:1 391:1 406:1 411:1 417:1 437:1 446:1 452:1 453:1 454:1 455:1 459:1 464:1 477:1 478:1 490:1 491:1 493:1 495:1 
-0.9704106236515184 0.9696470518885461 0.9696167027564733 0.9692224869547117 83:1 121:1 124:1 125:1 126:1 131:1 132:1 138:1 144:1 146:1 147:1 149:1 151:1 152:1 155:1 157:1 158:1 159:1 160:1 168:1 169:1 170:1 174:1 175:1 176:1 178:1 181:1 186:1 189:1 190:1 191:1 196:1 198:1 205:1 211:1 235:1 237:1 249:1 269:1 282:1 292:1 294:1 316:1 317:1 345:1 347:1 348:1 363:1 371:1 372:1 378:1 384:1 391:1 411:1 417:1 437:1 446:1 452:1 453:1 454:1 455:1 459:1 464:1 478:1 491:1 493:1 495:1 
-1.002719347567675 1.002663232568586 1.00298302403141 1.001925412284647 1:1 2:1 5:1 13:1 16:1 17:1 19:1 30:1 32:1 35:1 73:1 81:1 104:1 108:1 117:1 122:1 126:1 127:1 130:1 144:1 146:1 151:1 159:1 166:1 167:1 169:1 172:1 173:1 185:1 188:1 189:1 191:1 193:1 279:1 282:1 301:1 306:1 312:1 316:1 317:1 322:1 338:1 346:1 347:1 352:1 354:1 356:1 362:1 370:1 371:1 372:1 373:1 376:1 380:1 382:1 384:1 388:1 400:1 406:1 411:1 424:1 426:1 437:1 446:1 452:1 453:1 454:1 464:1 479:1 480:1 482:1 491:1 492:1 493:1 494:1 
-1.002762177161356 1.002391086624531 1.002605388694262 1.002484997861803 39:1 83:1 92:1 126:1 144:1 150:1 151:1 168:1 174:1 205:1 214:1 246:1 254:1 257:1 269:1 299:1 301:1 302:1 304:1 305:1 308:1 309:1 315:1 318:1 323:1 328:1 331:1 335:1 340:1 342:1 345:1 347:1 356:1 360:1 371:1 376:1 383:1 411:1 426:1 437:1 448:1 453:1 
-1.001233325934358 1.000828143225305 1.001166155629954 1.001149594713098 104:1 108:1 121:1 124:1 125:1 126:1 131:1 132:1 138:1 141:1 143:1 144:1 146:1 147:1 149:1 151:1 152:1 155:1 156:1 157:1 158:1 159:1 160:1 162:1 165:1 168:1 169:1 170:1 175:1 178:1 182:1 189:1 190:1 196:1 198:1 199:1 205:1 218:1 235:1 237:1 249:1 262:1 270:1 282:1 287:1 292:1 294:1 300:1 317:1 338:1 345:1 347:1 363:1 372:1 378:1 384:1 388:1 403:1 411:1 417:1 424:1 426:1 437:1 446:1 452:1 453:1 454:1 455:1 459:1 464:1 477:1 478:1 491:1 493:1 494:1 495:1 
-1.002787130738253 1.002842412265072 1.002393084335103 1.00241283956874 16:1 17:1 40:1 104:1 108:1 117:1 130:1 131:1 147:1 166:1 167:1 172:1 174:1 191:1 275:1 316:1 347:1 355:1 378:1 388:1 424:1 440:1 446:1 454:1 455:1 464:1 480:1 493:1 497:1 
-1.002795106076388 1.002182240035619 1.002245092037392 1.001923421232381 53:1 108:1 119:1 121:1 126:1 131:1 135:1 138:1 141:1 144:1 146:1 147:1 151:1 152:1 155:1 158:1 159:1 166:1 167:1 168:1 170:1 174:1 175:1 181:1 189:1 190:1 191:1 193:1 196:1 199:1 200:1 205:1 211:1 252:1 270:1 282:1 287:1 294:1 312:1 316:1 317:1 338:1 345:1 347:1 354:1 363:1 372:1 378:1 384:1 405:1 407:1 411:1 417:1 422:1 424:1 426:1 433:1 437:1 446:1 448:1 452:1 453:1 454:1 455:1 459:1 464:1 471:1 478:1 484:1 491:1 493:1 494:1 495:1 497:1 
-1.002661797872817 1.002750069109993 1.002568511060442 1.002221913122743 38:1 83:1 92:1 104:1 108:1 117:1 121:1 124:1 126:1 130:1 131:1 132:1 135:1 138:1 143:1 144:1 146:1 147:1 149:1 150:1 151:1 152:1 155:1 156:1 159:1 160:1 162:1 165:1 166:1 168:1 169:1 174:1 175:1 181:1 190:1 191:1 198:1 199:1 200:1 205:1 235:1 269:1 287:1 292:1 294:1 299:1 301:1 304:1 309:1 312:1 316:1 317:1 323:1 337:1 338:1 340:1 342:1 345:1 347:1 354:1 355:1 371:1 372:1 373:1 382:1 383:1 384:1 399:1 403:1 411:1 417:1 424:1 426:1 437:1 446:1 452:1 453:1 454:1 455:1 464:1 478:1 491:1 493:1 494:1 495:1 497:1 
-1.002609569697386 1.002062328611288 1.002925928704652 1.001888693085379 66:1 104:1 108:1 117:1 124:1 125:1 126:1 127:1 130:1 131:1 135:1 143:1 144:1 147:1 149:1 156:1 166:1 167:1 170:1 172:1 174:1 175:1 185:1 188:1 192:1 198:1 200:1 205:1 234:1 235:1 252:1 257:1 292:1 299:1 301:1 304:1 317:1 345:1 354:1 378:1 384:1 388:1 391:1 411:1 417:1 437:1 440:1 446:1 448:1 452:1 453:1 454:1 455:1 464:1 491:1 492:1 
-0.9999995187075297 -0.9971774962460437 0.9999980995386525 0.9994088208346175 38:1 131:1 138:1 142:1 201:1 202:1 205:1 211:1 212:1 216:1 217:1 218:1 224:1 235:1 240:1 241:1 249:1 250:1 251:1 252:1 267:1 273:1 275:1 284:1 287:1 289:1 299:1 300:1 350:1 355:1 363:1 401:1 402:1 403:1 404:1 406:1 409:1 411:1 413:1 417:1 422:1 424:1 437:1 438:1 440:1 443:1 446:1 447:1 448:1 453:1 454:1 459:1 462:1 464:1 471:1 473:1 476:1 485:1 494:1 
-0.9999999964677782 -0.9976761944161796 0.999999911445657 0.999414376768211 121:1 126:1 131:1 132:1 141:1 143:1 144:1 146:1 156:1 157:1 158:1 159:1 160:1 162:1 166:1 168:1 170:1 174:1 176:1 178:1 189:1 190:1 192:1 193:1 199:1 201:1 202:1 203:1 205:1 211:1 212:1 216:1 218:1 224:1 226:1 227:1 232:1 235:1 237:1 244:1 248:1 249:1 251:1 252:1 255:1 263:1 267:1 268:1 270:1 271:1 275:1 282:1 284:1 287:1 292:1 294:1 299:1 300:1 301:1 304:1 307:1 317:1 323:1 342:1 345:1 347:1 350:1 354:1 363:1 372:1 378:1 384:1 391:1 409:1 411:1 417:1 426:1 437:1 446:1 452:1 453:1 454:1 455:1 459:1 464:1 478:1 491:1 494:1 495:1 
-1.000000044713136 -0.9978145231153044 1.000000162962203 0.9993962625325089 144:1 146:1 151:1 155:1 158:1 159:1 160:1 168:1 169:1 178:1 189:1 190:1 193:1 204:1 211:1 240:1 257:1 262:1 270:1 282:1 287:1 307:1 317:1 338:1 342:1 345:1 372:1 407:1 411:1 417:1 424:1 426:1 437:1 446:1 448:1 453:1 454:1 455:1 464:1 478:1 491:1 493:1 494:1 495:1 
-0.99916747014705 -0.9959184827581328 0.9995447982816186 0.9976934027513759 42:1 53:1 150:1 201:1 203:1 217:1 229:1 246:1 250:1 252:1 269:1 275:1 283:1 293:1 327:1 350:1 355:1 378:1 403:1 417:1 482:1 
-0.9999968496660065 -0.9977593957135548 0.9999652312551335 0.9999752782189373 38:1 119:1 166:1 169:1 189:1 201:1 202:1 203:1 205:1 211:1 212:1 216:1 217:1 218:1 224:1 229:1 232:1 234:1 235:1 236:1 250:1 252:1 255:1 256:1 267:1 270:1 275:1 284:1 287:1 289:1 290:1 291:1 294:1 299:1 301:1 323:1 335:1 340:1 347:1 350:1 354:1 355:1 363:1 384:1 388:1 391:1 401:1 411:1 417:1 424:1 426:1 435:1 437:1 440:1 448:1 452:1 454:1 455:1 459:1 464:1 471:1 482:1 494:1 
-0.9999999590194214 -0.997745461096689 0.9999998178654838 0.9990770160644395 66:1 166:1 201:1 202:1 203:1 205:1 212:1 214:1 216:1 217:1 224:1 226:1 227:1 229:1 236:1 241:1 243:1 246:1 250:1 254:1 255:1 264:1 265:1 267:1 268:1 269:1 290:1 293:1 295:1 296:1 304:1 307:1 325:1 340:1 350:1 372:1 378:1 401:1 402:1 404:1 406:1 409:1 411:1 413:1 414:1 422:1 426:1 437:1 444:1 448:1 454:1 459:1 460:1 476:1 482:1 497:1 
-0.9999995831601884 -0.9972100797031014 0.9999993327144716 0.9991210789352168 119:1 126:1 131:1 144:1 166:1 201:1 202:1 203:1 205:1 211:1 212:1 216:1 217:1 218:1 229:1 232:1 234:1 235:1 241:1 244:1 250:1 251:1 252:1 253:1 255:1 262:1 263:1 265:1 270:1 275:1 282:1 283:1 284:1 287:1 299:1 301:1 304:1 317:1 323:1 347:1 350:1 363:1 371:1 384:1 401:1 409:1 411:1 417:1 437:1 438:1 443:1 446:1 448:1 453:1 454:1 461:1 464:1 493:1 494:1 495:1 497:1 
-0.9999998811877657 -0.9970827944378974 0.9999994335549605 0.9991037242165955 73:1 121:1 126:1 144:1 159:1 165:1 169:1 170:1 175:1 178:1 201:1 202:1 203:1 204:1 205:1 211:1 212:1 216:1 217:1 218:1 227:1 232:1 234:1 235:1 241:1 243:1 244:1 246:1 249:1 250:1 251:1 252:1 262:1 265:1 267:1 268:1 270:1 271:1 275:1 282:1 283:1 284:1 289:1 291:1 292:1 299:1 300:1 301:1 307:1 317:1 333:1 340:1 347:1 350:1 378:1 388:1 391:1 401:1 404:1 406:1 411:1 417:1 422:1 424:1 430:1 433:1 434:1 435:1 437:1 442:1 443:1 446:1 448:1 452:1 453:1 454:1 455:1 459:1 461:1 464:1 473:1 477:1 478:1 482:1 493:1 495:1 
-1.000000185858865 -0.9978991094798739 0.9999999998832995 0.9999999997184059 15:1 16:1 42:1 50:1 66:1 73:1 130:1 135:1 138:1 142:1 155:1 201:1 202:1 203:1 205:1 216:1 217:1 218:1 227:1 229:1 232:1 234:1 235:1 240:1 243:1 244:1 245:1 249:1 250:1 262:1 265:1 267:1 270:1 275:1 289:1 290:1 292:1 295:1 296:1 299:1 300:1 301:1 303:1 305:1 309:1 322:1 323:1 325:1 341:1 344:1 347:1 350:1 352:1 355:1 356:1 366:1 371:1 373:1 378:1 381:1 384:1 388:1 389:1 392:1 401:1 406:1 411:1 417:1 422:1 424:1 426:1 435:1 437:1 440:1 443:1 446:1 453:1 454:1 455:1 456:1 459:1 461:1 464:1 471:1 473:1 477:1 482:1 492:1 
-1.000618310045319 -0.9976993679084877 1.000000000026138 0.999429823600346 125:1 126:1 130:1 131:1 135:1 138:1 144:1 147:1 149:1 152:1 155:1 157:1 166:1 167:1 168:1 169:1 170:1 174:1 175:1 178:1 186:1 189:1 196:1 199:1 200:1 201:1 202:1 205:1 211:1 212:1 217:1 218:1 232:1 234:1 235:1 241:1 244:1 245:1 249:1 250:1 252:1 255:1 262:1 265:1 270:1 282:1 284:1 287:1 292:1 296:1 299:1 301:1 304:1 317:1 323:1 338:1 345:1 347:1 350:1 363:1 369:1 378:1 384:1 388:1 391:1 403:1 405:1 411:1 417:1 424:1 426:1 437:1 438:1 446:1 448:1 452:1 453:1 454:1 455:1 456:1 459:1 464:1 466:1 471:1 476:1 477:1 478:1 485:1 491:1 493:1 495:1 497:1 
-0.9999999465162377 -0.9975823598469428 0.9999996399897298 0.9993653547003054 73:1 125:1 131:1 201:1 202:1 204:1 205:1 211:1 212:1 216:1 217:1 218:1 224:1 227:1 232:1 234:1 235:1 241:1 244:1 249:1 250:1 252:1 255:1 262:1 265:1 271:1 290:1 292:1 299:1 300:1 301:1 307:1 317:1 340:1 345:1 347:1 350:1 355:1 371:1 378:1 381:1 400:1 401:1 403:1 406:1 411:1 422:1 424:1 426:1 437:1 443:1 446:1 448:1 453:1 454:1 459:1 464:1 471:1 473:1 480:1 482:1 485:1 495:1 
-0.9999965155435999 -0.9978846292391639 0.9999574377010566 0.9999742621161024 42:1 165:1 199:1 201:1 202:1 203:1 204:1 205:1 211:1 212:1 214:1 216:1 217:1 218:1 224:1 226:1 227:1 229:1 235:1 236:1 240:1 241:1 244:1 246:1 249:1 250:1 252:1 255:1 256:1 257:1 262:1 267:1 268:1 269:1 275:1 282:1 283:1 289:1 291:1 292:1 294:1 295:1 296:1 300:1 307:1 317:1 340:1 345:1 347:1 350:1 378:1 401:1 402:1 403:1 404:1 406:1 409:1 411:1 413:1 414:1 417:1 422:1 424:1 437:1 443:1 446:1 447:1 448:1 453:1 454:1 455:1 456:1 459:1 460:1 464:1 471:1 473:1 476:1 478:1 482:1 
-0.9999994969471799 -0.9977626475132373 0.9999967349507619 0.9993899978331101 92:1 124:1 125:1 131:1 132:1 138:1 142:1 144:1 165:1 166:1 170:1 189:1 192:1 201:1 202:1 203:1 204:1 205:1 211:1 212:1 216:1 217:1 218:1 224:1 226:1 227:1 229:1 232:1 235:1 236:1 241:1 243:1 244:1 245:1 246:1 249:1 250:1 251:1 252:1 255:1 265:1 267:1 268:1 270:1 271:1 275:1 282:1 283:1 287:1 290:1 291:1 292:1 295:1 299:1 300:1 301:1 307:1 317:1 333:1 335:1 345:1 347:1 350:1 354:1 355:1 372:1 380:1 388:1 400:1 401:1 402:1 403:1 406:1 411:1 417:1 422:1 424:1 426:1 437:1 443:1 446:1 448:1 452:1 453:1 454:1 455:1 456:1 459:1 464:1 471:1 476:1 478:1 482:1 492:1 495:1 
-1.000000003371336 -0.9977064760919836 0.9999999989976635 0.9992711219351589 8:1 17:1 38:1 40:1 66:1 119:1 142:1 144:1 155:1 160:1 178:1 198:1 200:1 201:1 202:1 205:1 211:1 212:1 216:1 217:1 224:1 232:1 234:1 235:1 236:1 250:1 252:1 255:1 256:1 267:1 269:1 282:1 289:1 291:1 299:1 300:1 301:1 307:1 317:1 323:1 340:1 344:1 347:1 350:1 352:1 354:1 359:1 363:1 382:1 384:1 388:1 398:1 401:1 403:1 406:1 409:1 411:1 417:1 424:1 426:1 435:1 437:1 440:1 453:1 454:1 455:1 459:1 464:1 471:1 480:1 491:1 492:1 493:1 497:1 
-0.9999999981835379 -0.9971707500235003 0.9999999996518796 0.9991387031773539 35:1 40:1 53:1 73:1 82:1 125:1 131:1 138:1 144:1 150:1 178:1 186:1 201:1 202:1 203:1 204:1 205:1 211:1 212:1 216:1 217:1 218:1 224:1 226:1 227:1 232:1 235:1 236:1 241:1 244:1 245:1 246:1 249:1 250:1 252:1 256:1 257:1 262:1 265:1 267:1 268:1 269:1 270:1 273:1 275:1 282:1 283:1 289:1 291:1 292:1 294:1 295:1 304:1 307:1 317:1 345:1 347:1 378:1 401:1 402:1 403:1 406:1 411:1 412:1 417:1 422:1 424:1 434:1 437:1 443:1 446:1 448:1 452:1 453:1 454:1 455:1 456:1 459:1 461:1 464:1 471:1 473:1 476:1 477:1 478:1 482:1 483:1 492:1 495:1 
-0.9999985662277577 -0.9975028032938767 0.999987847118965 0.9999833984904566 42:1 53:1 189:1 201:1 202:1 203:1 212:1 216:1 217:1 218:1 224:1 226:1 227:1 229:1 236:1 241:1 250:1 256:1 267:1 268:1 275:1 283:1 291:1 293:1 295:1 296:1 305:1 325:1 340:1 354:1 389:1 406:1 409:1 411:1 413:1 414:1 417:1 424:1 435:1 437:1 448:1 454:1 455:1 456:1 459:1 460:1 464:1 471:1 482:1 
-0.999999982537966 -0.9976325237715515 0.9999997265231955 0.9991665187701563 42:1 81:1 83:1 121:1 124:1 125:1 126:1 131:1 138:1 142:1 147:1 159:1 160:1 168:1 170:1 176:1 198:1 201:1 202:1 203:1 204:1 205:1 211:1 212:1 214:1 216:1 217:1 218:1 224:1 226:1 227:1 229:1 232:1 235:1 236:1 241:1 244:1 245:1 246:1 248:1 249:1 250:1 251:1 252:1 254:1 255:1 256:1 257:1 263:1 265:1 267:1 268:1 270:1 275:1 282:1 283:1 287:1 290:1 291:1 292:1 294:1 298:1 299:1 301:1 304:1 307:1 317:1 323:1 335:1 342:1 345:1 347:1 350:1 355:1 363:1 371:1 372:1 378:1 384:1 388:1 391:1 401:1 402:1 406:1 411:1 417:1 424:1 437:1 446:1 448:1 452:1 453:1 454:1 459:1 464:1 471:1 478:1 482:1 493:1 495:1 
-0.9999999812220145 -0.997162882489921 0.9999999440189967 0.9993877158616447 119:1 192:1 201:1 202:1 203:1 204:1 205:1 212:1 214:1 216:1 217:1 218:1 224:1 229:1 232:1 236:1 237:1 241:1 244:1 248:1 250:1 251:1 252:1 256:1 257:1 263:1 268:1 269:1 275:1 293:1 295:1 296:1 307:1 340:1 350:1 354:1 355:1 378:1 388:1 392:1 401:1 406:1 409:1 411:1 412:1 417:1 424:1 426:1 437:1 443:1 445:1 447:1 454:1 455:1 456:1 471:1 473:1 482:1 492:1 
-0.9999999616539786 -0.9976024891259347 0.9999998793026479 0.9992579608336201 141:1 142:1 144:1 169:1 192:1 200:1 201:1 202:1 203:1 205:1 211:1 212:1 217:1 218:1 224:1 232:1 241:1 244:1 250:1 251:1 252:1 255:1 265:1 267:1 273:1 275:1 282:1 283:1 284:1 287:1 291:1 294:1 296:1 300:1 304:1 323:1 338:1 350:1 354:1 371:1 401:1 402:1 409:1 411:1 417:1 422:1 424:1 426:1 437:1 448:1 453:1 454:1 459:1 466:1 468:1 471:1 476:1 482:1 492:1 493:1 
-0.9999990836967958 -0.9973407159757085 0.9999897499387599 0.9999935238728205 2:1 38:1 142:1 169:1 199:1 201:1 202:1 203:1 205:1 211:1 212:1 217:1 218:1 224:1 232:1 234:1 235:1 241:1 244:1 250:1 251:1 252:1 255:1 260:1 263:1 270:1 273:1 275:1 282:1 284:1 287:1 289:1 290:1 291:1 294:1 295:1 299:1 323:1 338:1 347:1 350:1 363:1 371:1 378:1 384:1 388:1 389:1 401:1 403:1 404:1 406:1 409:1 411:1 417:1 421:1 422:1 424:1 426:1 437:1 440:1 446:1 448:1 453:1 454:1 455:1 456:1 459:1 464:1 466:1 471:1 476:1 478:1 484:1 485:1 492:1 494:1 497:1 
-1.000671060865074 -0.9971304137165883 0.999844252045655 0.9998364827932322 66:1 73:1 201:1 202:1 204:1 205:1 211:1 212:1 217:1 218:1 224:1 227:1 232:1 235:1 241:1 244:1 251:1 252:1 255:1 262:1 265:1 290:1 295:1 299:1 301:1 307:1 350:1 355:1 356:1 366:1 371:1 373:1 378:1 389:1 401:1 403:1 406:1 409:1 411:1 424:1 426:1 434:1 437:1 443:1 454:1 455:1 471:1 473:1 482:1 
-0.9999849689521775 -0.9978766354722229 0.9998920870400683 0.9999160427504189 40:1 130:1 142:1 201:1 202:1 203:1 205:1 211:1 212:1 216:1 217:1 218:1 224:1 227:1 232:1 241:1 244:1 249:1 250:1 255:1 273:1 284:1 287:1 289:1 299:1 323:1 326:1 335:1 338:1 350:1 354:1 355:1 369:1 401:1 403:1 406:1 409:1 411:1 417:1 422:1 424:1 437:1 440:1 448:1 454:1 455:1 459:1 464:1 466:1 471:1 476:1 492:1 493:1 494:1 497:1 
-0.999999998291726 -0.9977168414636214 0.9999999940989699 0.9993930032672167 38:1 155:1 191:1 201:1 202:1 203:1 204:1 205:1 211:1 212:1 216:1 227:1 232:1 234:1 236:1 241:1 244:1 245:1 251:1 254:1 255:1 256:1 263:1 265:1 270:1 282:1 284:1 287:1 290:1 294:1 301:1 304:1 317:1 323:1 333:1 335:1 336:1 338:1 342:1 344:1 345:1 347:1 350:1 372:1 378:1 384:1 388:1 391:1 400:1 406:1 411:1 422:1 424:1 426:1 430:1 437:1 440:1 443:1 448:1 452:1 453:1 454:1 455:1 456:1 459:1 464:1 466:1 478:1 482:1 491:1 493:1 494:1 
-0.9999999328499031 -0.9971809717329136 0.9999996979692167 0.9990951932860598 38:1 73:1 144:1 150:1 166:1 189:1 201:1 202:1 203:1 204:1 205:1 211:1 212:1 216:1 217:1 218:1 224:1 227:1 232:1 234:1 235:1 236:1 244:1 248:1 253:1 255:1 256:1 264:1 265:1 270:1 283:1 284:1 287:1 291:1 294:1 298:1 301:1 307:1 317:1 323:1 325:1 335:1 338:1 340:1 347:1 350:1 354:1 355:1 363:1 371:1 372:1 378:1 384:1 391:1 400:1 401:1 403:1 406:1 411:1 416:1 417:1 424:1 426:1 435:1 437:1 440:1 446:1 448:1 452:1 453:1 454:1 455:1 459:1 464:1 466:1 471:1 476:1 478:1 482:1 491:1 492:1 493:1 
-0.9999992658718336 -0.9973541562978966 0.9999937821061488 0.9999969394253867 16:1 119:1 121:1 124:1 125:1 126:1 138:1 144:1 156:1 159:1 166:1 170:1 189:1 193:1 201:1 202:1 203:1 205:1 211:1 212:1 216:1 217:1 218:1 227:1 232:1 235:1 241:1 244:1 246:1 249:1 250:1 251:1 255:1 265:1 267:1 268:1 271:1 275:1 282:1 283:1 284:1 287:1 292:1 296:1 299:1 300:1 301:1 307:1 317:1 340:1 345:1 347:1 350:1 358:1 371:1 378:1 401:1 411:1 417:1 437:1 446:1 452:1 453:1 454:1 459:1 464:1 473:1 478:1 
-0.9995590179906224 -0.9963897002579938 0.9992777983988597 8 75:1 202:1 235:1 342:1 373:1 380:1 401:1 404:1 413:1 415:1 418:1 424:1 426:1 438:1 443:1 446:1 447:1 449:1 451:1 455:1 458:1 460:1 467:1 
-1.000516980107992 -0.9973561495316889 0.9999999965954462 0.9999998689497185 64:1 92:1 126:1 131:1 135:1 138:1 142:1 155:1 156:1 166:1 170:1 172:1 175:1 178:1 189:1 201:1 202:1 203:1 205:1 211:1 212:1 216:1 218:1 229:1 235:1 236:1 244:1 245:1 250:1 262:1 264:1 268:1 271:1 275:1 287:1 289:1 292:1 294:1 300:1 307:1 317:1 345:1 354:1 378:1 388:1 391:1 406:1 411:1 413:1 417:1 422:1 426:1 437:1 438:1 440:1 443:1 446:1 448:1 452:1 453:1 454:1 455:1 459:1 464:1 466:1 471:1 476:1 485:1 491:1 492:1 494:1 495:1 
-1.000565614545929 -0.9977163228447776 0.9994364067738487 0.9992201591486747 124:1 131:1 144:1 192:1 201:1 202:1 204:1 205:1 211:1 212:1 216:1 217:1 218:1 224:1 226:1 227:1 232:1 235:1 236:1 241:1 243:1 244:1 245:1 246:1 250:1 251:1 252:1 255:1 256:1 265:1 267:1 268:1 270:1 271:1 275:1 282:1 283:1 284:1 290:1 291:1 295:1 296:1 299:1 300:1 301:1 307:1 323:1 335:1 340:1 347:1 350:1 378:1 400:1 401:1 406:1 411:1 417:1 422:1 424:1 434:1 437:1 443:1 446:1 453:1 454:1 455:1 459:1 464:1 482:1 492:1 496:1 
